,avg_rews,std_rews,avg_actor_loss,avg_critic_loss,avg_policy_loss,avg_kl_divergence
0,-5795.2,527.71,0.25705,1.88098,1.19754,1.0
1,-12494.17,2246.93,0.10562,1.7961,1.00367,0.15624
2,-12195.05,2202.08,0.04486,1.89117,0.99045,0.10547
3,-12484.49,2198.85,0.10372,1.85462,1.03104,0.10447
4,-11960.88,1914.93,0.07482,1.73734,0.94349,0.09734
5,-12483.05,2611.94,0.06004,1.57938,0.84973,0.09568
6,-12642.62,2260.6,0.07931,1.68449,0.92156,0.08402
7,-12467.78,2441.03,0.07839,1.55646,0.85662,0.08476
8,-12601.16,2497.63,0.04217,1.50358,0.79396,0.06214
9,-12358.34,2234.41,0.03535,1.57277,0.82174,0.05917
10,-11913.38,2093.76,0.0378,1.41862,0.74711,0.04935
11,-12669.13,2236.77,0.01762,1.47434,0.75479,0.05098
12,-12914.74,2254.53,0.03141,1.37137,0.7171,0.05005
13,-12585.78,2171.2,0.01586,1.35492,0.69332,0.02911
14,-13150.26,2256.07,0.02145,1.31454,0.67872,0.03152
15,-12330.83,2155.16,0.04644,1.27935,0.68612,0.03887
16,-12337.33,2319.68,0.03251,1.31834,0.69168,0.04382
17,-12840.62,2178.19,0.01392,1.30027,0.66405,0.03276
18,-12770.18,2349.75,0.04573,1.26635,0.67891,0.04903
19,-12876.38,2254.47,0.03968,1.29327,0.68632,0.06047
20,-12469.94,2341.13,0.05994,1.23404,0.67696,0.06205
21,-12120.83,2439.18,0.03863,1.22445,0.65085,0.04691
22,-12489.44,2148.78,0.03777,1.23084,0.65319,0.03735
23,-12687.13,2376.19,0.02,1.16166,0.60083,0.02236
24,-12621.86,2385.13,0.00709,1.12787,0.57102,0.0147
25,-12424.71,2148.92,0.00597,1.11751,0.56473,0.01431
26,-12446.57,2518.5,0.01613,1.07249,0.55238,0.01365
27,-13117.01,2320.3,0.0189,1.16066,0.59923,0.02002
28,-12571.63,2288.99,0.02117,1.08925,0.5658,0.02763
29,-12654.85,2322.69,-0.00077,1.1636,0.58103,0.00963
30,-12382.91,2283.49,0.00062,1.12781,0.56452,0.00576
31,-12318.08,2455.06,-0.00388,1.10345,0.54785,0.00999
32,-12095.77,2432.37,-0.00388,1.11258,0.55241,0.01027
33,-12527.25,2225.96,-0.00088,1.09621,0.54723,0.00845
34,-12533.18,2615.18,0.002,1.11644,0.56022,0.00985
35,-12685.59,2185.27,-0.00764,1.06197,0.52334,0.00965
36,-12313.89,2333.34,0.00817,1.12713,0.57173,0.01869
37,-12514.33,2689.68,0.02677,1.04835,0.55094,0.04421
38,-12990.95,2367.17,0.05117,1.03303,0.56769,0.05527
39,-12808.75,2248.03,0.03937,1.08468,0.58171,0.0461
40,-12595.75,2342.0,0.0109,1.0311,0.52645,0.02736
41,-12652.74,2546.06,0.03229,1.04292,0.55374,0.03551
42,-12376.86,2268.3,0.02937,1.008,0.53336,0.03345
43,-12328.76,2428.39,0.04189,1.07971,0.58175,0.03352
44,-12861.73,2422.28,0.02137,1.09904,0.57089,0.03684
45,-12838.66,2446.84,0.01963,1.03167,0.53546,0.02457
46,-12776.67,2425.12,0.00849,1.08219,0.54959,0.02148
47,-12826.17,2110.08,-0.00367,1.01678,0.50472,0.01533
48,-12744.45,2185.83,0.01174,1.06377,0.54362,0.01934
49,-12650.68,2211.22,0.0249,1.04618,0.54799,0.02738
50,-12704.02,2374.38,0.01154,1.04231,0.5327,0.01811
51,-12178.55,2504.53,0.01384,1.04797,0.53783,0.01903
52,-12789.77,2241.05,0.01135,1.0112,0.51695,0.01758
53,-11899.5,2365.03,0.00068,1.03354,0.51745,0.01018
54,-12022.7,2372.01,-0.00321,1.01288,0.50323,0.01105
55,-12289.13,2498.05,0.00623,1.02819,0.52032,0.01208
56,-12461.9,2601.66,-0.00778,1.01939,0.50192,0.00858
57,-12750.56,2504.7,-0.00423,1.01493,0.50324,0.00292
58,-12443.55,2345.29,-0.0023,1.00894,0.50217,0.01018
59,-12607.78,2078.05,-0.00582,1.02421,0.50629,0.00205
60,-12456.42,2572.72,-0.00082,1.02799,0.51318,0.00437
61,-12620.68,2291.55,0.00174,0.99925,0.50136,0.00356
62,-12741.99,2329.8,0.00227,1.02543,0.51498,0.0055
63,-12193.29,2123.11,-0.00085,0.99,0.49415,0.00378
64,-12338.45,2278.61,0.00105,1.02693,0.51452,0.00651
65,-12368.44,2095.27,0.00551,0.98449,0.49776,0.00404
66,-12509.24,2363.5,-0.00039,0.98341,0.49132,0.00427
67,-12299.78,2436.28,-0.00451,1.0204,0.50569,0.00855
68,-12775.06,2084.06,0.00197,1.00223,0.50309,0.01349
69,-12189.71,2128.79,0.00261,0.99534,0.50028,0.00588
70,-12306.27,2005.14,0.00396,1.0255,0.51671,0.00808
71,-12335.68,2279.53,-0.00129,0.99503,0.49622,0.00653
72,-12032.14,2146.69,-0.00572,1.00556,0.49706,0.0058
73,-12649.89,2505.56,0.0011,1.00638,0.50429,0.00648
74,-12581.29,2289.93,-0.00615,1.00456,0.49613,0.00475
75,-12246.02,2287.26,0.00531,0.98953,0.50008,0.0068
76,-12586.07,2359.75,-1e-05,1.01348,0.50673,0.00903
77,-12748.59,2506.49,0.00359,0.99623,0.50171,0.01854
78,-12937.55,2492.53,0.0292,1.01667,0.53754,0.03459
79,-12258.34,2277.27,0.01441,0.98992,0.50937,0.02345
80,-12413.05,2303.38,0.01896,1.02087,0.52939,0.021
81,-12594.51,2015.16,0.00089,0.97923,0.4905,0.02029
82,-13047.73,2442.16,0.02106,0.98112,0.51163,0.01357
83,-12296.28,2222.75,0.00123,1.01142,0.50694,0.01143
84,-12058.74,2279.91,0.00038,0.98554,0.49315,0.01412
85,-12558.11,2185.98,0.00048,0.98901,0.49498,0.01136
86,-12410.97,2182.96,0.0032,1.01127,0.50884,0.00445
87,-12304.85,2482.79,-0.00042,0.98623,0.4927,0.00155
88,-12662.98,2344.23,-0.00231,0.97438,0.48488,0.00288
89,-12379.94,2179.84,-0.00268,0.99897,0.4968,0.0061
90,-12441.83,2543.46,0.00078,0.99952,0.50054,0.00532
91,-12292.67,2397.7,-0.00648,0.99149,0.48926,0.00383
92,-12520.68,2674.44,-0.00405,1.01459,0.50325,0.00382
93,-12523.57,2245.87,0.00197,0.98536,0.49465,0.00135
94,-12294.43,2144.39,-0.00542,0.99525,0.4922,0.00275
95,-12458.39,2361.33,-0.00539,0.99482,0.49202,0.00805
96,-12536.17,2584.52,0.00241,0.99016,0.49749,0.00307
97,-12295.87,2194.95,-0.00736,0.99396,0.48962,0.00597
98,-12424.32,1997.19,-0.00289,1.00482,0.49952,0.0026
99,-12472.13,2091.25,-0.00068,0.99981,0.49923,0.00299
100,-12182.54,2479.45,-0.00246,0.98999,0.49254,0.00151
101,-12801.36,2163.27,-0.00603,0.9868,0.48737,0.00934
102,-12711.21,2251.5,-0.00879,0.99189,0.48716,0.00479
103,-12523.56,2289.27,-0.00829,0.98328,0.48335,0.00546
104,-12666.25,2437.81,-0.0029,0.99457,0.49439,0.00359
105,-12244.64,2030.15,-0.00202,0.98311,0.48953,0.00271
106,-12569.68,2306.23,-0.00199,0.99544,0.49574,0.001
107,-12923.16,2302.01,-0.00387,0.97821,0.48524,0.00122
108,-12448.4,2446.98,-0.00896,1.00629,0.49419,0.00533
109,-12480.59,2391.85,0.0094,0.98755,0.50318,0.00703
110,-12321.64,2366.75,-0.00188,0.98973,0.49299,0.00899
111,-12623.8,2398.06,0.00188,1.0048,0.50428,0.00336
112,-12531.81,2225.03,-0.00209,0.97284,0.48433,0.00502
113,-12355.13,2143.06,0.0026,0.99972,0.50246,0.00564
114,-12585.18,2399.39,0.00017,1.01143,0.50588,0.00767
115,-12292.85,2174.56,-0.00564,0.98159,0.48515,0.00693
116,-12411.84,2309.87,0.00912,0.99612,0.50718,0.01195
117,-12982.48,2267.14,0.00234,0.99439,0.49953,0.00401
118,-12342.57,2432.23,-0.00645,0.99475,0.49093,0.00443
119,-12550.15,2070.68,-0.00589,1.01064,0.49943,0.00423
120,-12695.21,2374.54,-0.00318,0.98132,0.48748,0.00075
121,-12477.97,2071.05,-0.00605,0.98629,0.4871,0.00168
122,-12732.81,2491.07,-0.00162,0.99954,0.49815,0.00248
123,-12538.29,2364.14,-0.00486,0.97299,0.48163,0.00548
124,-12618.91,2329.97,-0.00231,1.0053,0.50034,0.00842
125,-12719.95,2212.55,0.0012,0.97065,0.48653,0.01283
126,-11895.23,2330.05,-0.02052,0.98517,0.47206,0.01585
127,-12471.69,2494.7,-0.00048,0.99841,0.49873,0.00435
128,-12468.94,2376.73,0.00086,1.00299,0.50236,0.01119
129,-12655.01,2218.08,0.00021,0.99104,0.49573,0.00296
130,-12699.1,2458.99,-0.00345,0.9993,0.4962,0.0026
131,-12431.93,2581.4,-0.00356,0.98051,0.48669,0.00288
132,-12711.17,2363.6,-0.00387,0.98865,0.49045,0.00325
133,-12536.04,2305.47,-0.00182,1.01436,0.50536,0.00358
134,-12510.15,2225.15,0.003,0.98651,0.49625,0.00407
135,-12576.05,2294.66,-0.00437,0.997,0.49412,0.00359
136,-12924.68,2334.15,-0.00313,0.96511,0.47942,0.00269
137,-12453.22,2348.82,0.0031,0.9743,0.49026,0.00248
138,-12685.78,2407.31,0.00406,0.99728,0.5027,0.00632
139,-12717.02,2388.13,-0.00137,0.98398,0.49062,0.00161
140,-12420.48,2162.89,-0.00352,0.99443,0.49369,0.00523
141,-12335.33,2323.52,0.00251,0.97602,0.49052,0.00648
142,-12350.52,2549.13,0.0188,0.98785,0.51273,0.01537
143,-12474.98,2125.8,0.01455,0.97519,0.50215,0.02157
144,-12667.55,2406.71,0.0156,0.97909,0.50514,0.0169
145,-12340.06,2144.83,0.01379,0.98637,0.50698,0.01335
146,-12549.07,2246.37,-0.00125,0.99098,0.49424,0.0103
147,-12731.48,2150.73,0.00929,0.98155,0.50007,0.00896
148,-12503.3,2714.27,0.01536,0.9716,0.50116,0.0131
149,-12499.05,1983.52,0.0176,0.97672,0.50595,0.01374
150,-12421.97,2336.51,0.02106,0.99765,0.51988,0.01608
151,-12471.62,2206.99,0.00772,0.99713,0.50628,0.01891
152,-12569.18,2428.34,0.00997,0.96562,0.49278,0.00963
153,-12400.7,2144.99,0.00409,0.97635,0.49226,0.00726
154,-12228.74,2378.39,0.01245,0.96688,0.49589,0.01142
155,-12256.68,2338.46,0.00727,0.98577,0.50016,0.00822
156,-12584.8,2413.63,0.0097,0.97573,0.49756,0.00438
157,-12400.8,2378.59,-0.00294,0.97379,0.48396,0.00415
158,-12496.67,2157.64,-0.00106,0.9884,0.49313,0.00163
159,-12522.74,2373.33,-0.00287,0.98952,0.49189,0.00325
160,-12437.5,2017.99,0.00178,0.98426,0.4939,0.0061
161,-12404.95,2166.48,-0.00101,0.95867,0.47833,0.00581
162,-12353.17,2133.74,0.00281,0.97907,0.49235,0.00739
163,-12426.23,2276.39,0.00257,0.99155,0.49834,0.00508
164,-12827.49,2310.73,-0.00739,0.98824,0.48673,0.00653
165,-11780.78,2190.95,0.00674,0.96793,0.49071,0.00501
166,-12396.69,2340.44,-0.00063,0.99666,0.4977,0.00604
167,-12808.96,2335.85,-0.00303,0.99072,0.49233,0.01057
168,-12222.31,2069.55,1e-05,0.99182,0.49592,0.00741
169,-12629.12,2575.85,0.00171,0.96278,0.48309,0.00615
170,-12285.12,2207.55,0.00969,0.97047,0.49493,0.00789
171,-12200.54,2406.83,-0.00614,0.9911,0.48942,0.00513
172,-12548.14,2154.8,0.00348,0.98187,0.49441,0.00446
173,-12349.19,2061.08,-0.00217,0.99029,0.49298,0.00923
174,-12540.69,2344.71,-0.00068,0.96066,0.47965,0.00747
175,-12734.24,2458.6,0.0041,0.98344,0.49582,0.00758
176,-12625.03,2121.61,-0.00332,0.9626,0.47798,0.0036
177,-12655.03,2402.28,-0.00464,1.00273,0.49673,0.00372
178,-12136.22,2050.6,0.00702,0.98004,0.49704,0.00445
179,-12237.95,2396.03,-0.00285,0.98704,0.49067,0.00387
180,-12321.51,2379.7,0.00129,0.99807,0.50032,0.00389
181,-12342.07,2457.91,-0.00767,0.9497,0.46718,0.00452
182,-12176.26,2283.41,0.00274,1.00304,0.50426,0.01013
183,-12265.12,2284.38,0.00377,0.99531,0.50142,0.00875
184,-12227.51,2096.12,-0.00034,0.97759,0.48846,0.0096
185,-12566.16,2439.34,0.01309,0.98422,0.50519,0.01239
186,-12447.1,2406.69,-0.00079,0.98782,0.49312,0.00554
187,-12877.63,2322.28,0.00599,0.98439,0.49818,0.00945
188,-12570.65,2144.05,-0.00676,0.9925,0.48949,0.01322
189,-12091.57,2172.48,-0.00114,0.98081,0.48927,0.00891
190,-12572.4,2411.19,-0.00352,0.97651,0.48473,0.0037
191,-12391.39,2470.76,-0.00165,0.99674,0.49672,0.00066
192,-12205.92,2462.81,-0.00427,0.96138,0.47642,0.00227
193,-12735.59,2577.07,0.00632,0.99234,0.5025,0.00293
194,-12336.34,2593.58,0.00649,0.97525,0.49412,0.00469
195,-12226.2,2312.19,-0.01381,0.98892,0.48065,0.00342
196,-12820.62,2622.83,-0.00515,0.97801,0.48386,0.0014
197,-12456.5,2476.2,-0.00363,0.98004,0.48639,0.00832
198,-12478.11,2283.94,-0.01076,0.98586,0.48216,0.00302
199,-12464.36,2267.36,-0.00221,0.97269,0.48413,0.00183
200,-12112.68,2245.95,-0.00466,0.95681,0.47375,0.00199
201,-12361.63,2278.11,0.00308,0.94824,0.4772,0.00337
202,-12428.32,2477.75,-0.00399,0.97401,0.48302,0.00379
203,-11996.28,2471.48,-0.0054,0.98701,0.48811,0.00314
204,-12515.38,2425.98,-0.00181,0.97919,0.48778,0.00274
205,-12002.95,2139.72,-0.00249,0.97531,0.48516,0.00302
206,-12160.78,2329.4,-0.00114,0.97315,0.48543,0.00233
207,-12716.74,2128.95,-0.00067,0.98256,0.49061,0.00343
208,-11883.63,2258.2,-0.0013,0.96938,0.48339,0.00149
209,-12339.11,2433.42,-0.00142,0.98859,0.49287,0.00091
210,-12125.6,2306.99,1e-05,0.9982,0.49911,0.00746
211,-12434.7,2379.9,0.00238,0.96803,0.48639,0.00163
212,-12413.81,2244.31,-0.00286,0.99242,0.49335,0.00139
213,-12642.22,2567.54,-0.00172,0.9907,0.49364,0.00234
214,-12266.87,2372.83,-0.00583,0.97458,0.48146,0.00284
215,-12460.69,2331.87,0.00102,0.97906,0.49055,0.00462
216,-12571.09,1991.65,-0.00111,0.97608,0.48694,0.00385
217,-12332.83,2519.5,-0.0035,0.98605,0.48953,0.00614
218,-12424.52,2168.73,-0.0044,0.99057,0.49088,0.00248
219,-12383.83,2343.83,-3e-05,0.98746,0.49369,0.00126
220,-12370.58,2812.37,-0.0054,0.98395,0.48658,0.00093
221,-12456.75,2252.08,-0.00587,0.99243,0.49035,0.00084
222,-12693.59,2326.74,-0.00296,0.98291,0.48849,0.00196
223,-12030.44,2190.72,-0.00065,0.99282,0.49576,0.00361
224,-12662.34,2279.73,0.00076,0.97378,0.48765,0.00412
225,-12279.4,2140.26,-0.00581,0.99176,0.49006,0.00098
226,-12247.69,2336.21,-0.00151,0.99797,0.49748,0.00591
227,-12519.58,2350.41,4e-05,0.9495,0.47479,0.00138
228,-12532.44,2461.62,-0.00381,0.98777,0.49007,0.00262
229,-12617.46,2506.73,-0.00689,0.96619,0.4762,0.00156
230,-11915.44,2298.57,0.00125,0.98323,0.49287,0.00282
231,-12584.01,2224.97,0.0,0.97691,0.48846,0.00235
232,-12461.68,2400.26,-0.00211,0.98969,0.49273,0.00134
233,-12799.16,2228.66,-0.00088,0.99247,0.49535,0.00414
234,-12545.52,2158.94,-3e-05,0.97184,0.4859,0.00312
235,-12227.46,2119.65,-0.00043,0.96835,0.48375,0.00515
236,-12624.97,2266.32,-0.00232,0.97756,0.48646,0.00331
237,-12163.28,2544.6,0.01005,0.9804,0.50026,0.00733
238,-12271.88,2446.39,0.0006,0.97341,0.4873,0.00536
239,-12227.46,2255.87,-0.00532,0.97111,0.48023,0.00355
240,-11921.41,2342.67,-0.00156,0.97858,0.48773,0.00218
241,-12324.37,2499.31,-0.00537,0.98542,0.48734,0.0034
242,-12373.63,2444.07,-0.00344,1.00349,0.4983,0.00256
243,-12259.79,2275.85,-0.00271,0.97464,0.48461,0.00175
244,-12162.94,2164.07,-0.00414,0.97161,0.48166,0.002
245,-12359.52,2234.08,-0.00314,1.00267,0.49819,0.00517
246,-12616.59,2351.24,-0.00466,0.98696,0.48882,0.00533
247,-12266.73,2059.68,-0.00357,0.97531,0.48409,0.00346
248,-12337.54,2360.75,-0.00294,0.99007,0.4921,0.0011
249,-12021.72,2300.56,0.00439,0.97929,0.49404,0.00308
250,-12615.52,2172.5,0.00432,0.96754,0.48809,0.00383
251,-12277.46,1933.28,-0.00523,0.98543,0.48748,0.00264
252,-12012.86,2234.04,0.00169,0.967,0.48519,0.0115
253,-12280.8,2015.73,0.0246,0.99847,0.52384,0.01677
254,-12059.25,2309.59,0.00542,0.96677,0.4888,0.0135
255,-12429.45,2254.6,0.02364,0.98824,0.51776,0.02239
256,-12052.76,2508.13,0.00177,0.98882,0.49618,0.0094
257,-12336.78,2254.34,-0.0029,0.97872,0.48646,0.00479
258,-12330.52,2308.83,-0.00183,0.96014,0.47824,0.00086
259,-12658.46,2351.88,-0.00041,0.98041,0.48979,0.00213
260,-12027.29,2149.71,0.00256,0.97583,0.49048,0.00221
261,-12296.1,2220.49,-2e-05,0.99077,0.49537,0.00374
262,-12684.86,2177.69,0.00323,0.97642,0.49144,0.00325
263,-12378.63,2377.59,-0.0051,0.95504,0.47242,0.00173
264,-12101.13,2356.99,-0.00229,0.96824,0.48183,0.0054
265,-12302.51,2322.78,-0.00123,0.96249,0.48002,0.0083
266,-12505.08,2534.25,-0.00315,0.9778,0.48575,0.0059
267,-12756.7,2196.11,-0.00509,0.95885,0.47434,0.00311
268,-12500.86,2180.75,-0.00447,0.98186,0.48646,0.00182
269,-12243.65,2211.54,0.0,0.98909,0.49454,0.00642
270,-12368.08,2365.93,0.00591,0.96936,0.49059,0.00625
271,-12299.63,2143.04,-0.00125,0.98771,0.4926,0.006
272,-12339.04,2393.74,0.01122,0.97593,0.49918,0.00783
273,-12526.66,2501.64,0.01258,0.98727,0.50621,0.00774
274,-11621.64,2250.23,-0.00011,0.97148,0.48563,0.0053
275,-12153.31,2131.72,0.00872,0.98296,0.5002,0.00816
276,-12159.63,2385.59,0.00133,0.98162,0.49214,0.00418
277,-12161.7,2150.61,0.00947,0.97773,0.49833,0.00678
278,-12164.15,2124.32,0.00625,0.9811,0.4968,0.01122
279,-12225.29,2483.37,-0.00647,0.97752,0.48229,0.00721
280,-12008.93,2275.78,-0.00317,0.984,0.48884,0.00737
281,-12210.62,2296.23,0.00167,0.95572,0.47954,0.00401
282,-11851.58,2386.35,0.00078,1.00524,0.5034,0.00129
283,-12091.17,2141.29,-0.00707,0.98977,0.48781,0.00245
284,-12637.65,2206.71,-0.00592,0.96173,0.47495,0.00344
285,-12244.33,2316.19,-0.00379,0.98727,0.48985,0.00284
286,-12703.46,2214.9,-0.0009,0.9832,0.4907,0.00314
287,-12070.03,2244.15,6e-05,0.96843,0.48428,0.00334
288,-12458.87,2321.84,-0.00154,0.98146,0.48919,0.00289
289,-12302.98,2079.14,0.00535,0.98099,0.49585,0.00377
290,-12158.51,2277.78,-0.00169,0.9721,0.48437,0.00187
291,-11750.99,2283.91,0.00521,0.94901,0.47971,0.00648
292,-11881.62,2117.79,-0.0025,0.99047,0.49274,0.00406
293,-12169.05,2097.32,-0.00302,0.98792,0.49094,0.00495
294,-12297.44,2422.12,-0.00288,0.96052,0.47738,0.0009
295,-12217.72,2140.7,-0.00107,0.97654,0.4872,0.00326
296,-12293.38,2198.46,-2e-05,0.9805,0.49023,0.00267
297,-12345.04,2682.15,-0.00557,0.98538,0.48712,0.00251
298,-11811.33,2306.92,0.00174,0.94287,0.47318,0.00614
299,-12120.74,2393.63,-0.00664,0.99018,0.48845,0.00339
300,-12233.53,2262.71,0.00228,0.9737,0.48913,0.00239
301,-11750.7,2049.05,-0.00344,0.97073,0.48192,0.00368
302,-12129.54,2120.93,-0.00617,0.97916,0.48341,0.00563
303,-12449.59,2145.32,-0.00775,0.99968,0.49209,0.00527
304,-11972.06,2497.12,-0.00412,0.95301,0.47238,0.00479
305,-12119.2,2530.9,-0.00784,0.96712,0.47572,0.00243
306,-11265.51,2301.88,-0.00403,0.96395,0.47794,0.00093
307,-12118.35,2191.32,0.00542,0.9709,0.49087,0.00442
308,-12043.02,2378.14,0.0,0.96489,0.48245,0.0038
309,-12593.57,2408.69,0.0009,0.96253,0.48216,0.0058
310,-12013.63,2486.44,0.02098,0.98515,0.51355,0.01719
311,-12137.67,2218.44,0.0027,0.97876,0.49207,0.01202
312,-12043.2,2219.58,0.00302,0.97093,0.48848,0.00809
313,-12016.44,1954.89,-0.00508,0.97217,0.481,0.00373
314,-12219.78,2095.51,-0.00417,0.98061,0.48614,0.00377
315,-12145.86,2209.14,-0.00189,0.99473,0.49547,0.00181
316,-12110.51,2184.19,-0.00164,0.96313,0.47992,0.00286
317,-12101.05,2293.92,-0.00294,0.9701,0.48211,0.00403
318,-12051.82,2571.58,0.00376,0.95222,0.47987,0.01032
319,-12000.64,1882.87,-0.00154,0.96544,0.48118,0.00366
320,-12372.98,2303.8,-0.00131,0.97805,0.48772,0.002
321,-12152.38,2237.07,0.00233,0.97318,0.48892,0.00341
322,-12169.62,2376.56,-0.00133,0.95306,0.4752,0.00218
323,-12213.67,2428.82,-0.00046,1.00372,0.5014,0.0053
324,-12046.3,2121.34,-0.0032,0.99365,0.49363,0.00435
325,-12094.69,2409.7,0.00495,0.97179,0.49084,0.00402
326,-12229.33,2308.52,-0.00174,0.97061,0.48357,0.00315
327,-11848.01,2454.76,0.00019,0.96035,0.48036,0.00144
328,-11899.97,2324.39,-0.00277,0.95162,0.47304,0.00302
329,-12734.39,2189.09,-0.00327,0.98318,0.48832,0.00209
330,-12072.13,2150.07,-0.00484,0.99292,0.49162,0.00419
331,-12184.32,2352.0,-0.0005,0.96306,0.48103,0.00298
332,-11810.99,2295.43,-0.00612,0.97322,0.48049,0.0057
333,-12400.41,2344.17,-0.00647,0.95698,0.47202,0.00642
334,-12093.26,2323.75,0.00354,0.96869,0.48789,0.00629
335,-11926.12,2197.02,-0.00064,0.97266,0.48569,0.00415
336,-12051.13,2455.5,-0.00523,0.99192,0.49072,0.00237
337,-12248.74,2325.96,-0.00241,0.99742,0.49629,0.0025
338,-11618.9,2237.54,0.0024,0.96611,0.48546,0.00564
339,-11578.48,2354.49,0.00236,0.97529,0.49001,0.00859
340,-12316.69,2283.85,-0.00036,0.96703,0.48316,0.00398
341,-12272.96,2296.29,-0.00144,0.95688,0.477,0.00186
342,-12224.27,2118.31,-0.00129,0.95177,0.4746,0.00203
343,-12132.98,2186.17,-0.00137,0.97842,0.48784,0.00202
344,-11967.64,2061.52,-0.00393,0.96869,0.48042,0.00181
345,-12045.33,1917.11,-0.00288,0.99232,0.49328,0.00183
346,-11941.65,1644.25,-0.00053,0.98503,0.49198,0.00127
347,-11777.98,2352.25,-0.008,0.97191,0.47795,0.00189
348,-11526.15,2220.15,-0.00206,0.96481,0.48034,0.00181
349,-12154.09,2434.86,-0.00019,0.95907,0.47934,0.00134
350,-11952.59,2287.06,-0.00294,0.96597,0.48005,0.00091
351,-12304.92,2324.41,-0.00325,0.97646,0.48498,0.00275
352,-12274.32,2203.21,-0.00324,0.97953,0.48653,0.00092
353,-11812.29,2089.07,-0.00099,0.9702,0.48411,0.00194
354,-11936.29,2299.46,-0.01395,0.9907,0.4814,0.00493
355,-11969.89,2613.59,-0.00693,0.95738,0.47177,0.00257
356,-11748.51,2131.52,-0.00661,0.95195,0.46936,0.00168
357,-11658.86,2188.4,-0.00356,0.95445,0.47367,0.00133
358,-11900.43,2102.74,-0.0054,0.95629,0.47274,0.00135
359,-12149.56,2234.11,-0.00702,0.98605,0.486,0.00287
360,-11909.56,2111.54,-0.00494,0.97077,0.48044,0.00258
361,-11584.45,1916.4,0.01034,0.923,0.47184,0.01121
362,-12247.45,2161.39,-0.00404,0.96436,0.47814,0.00104
363,-12124.26,2385.07,0.00092,0.95249,0.47716,0.00243
364,-11722.23,2100.8,0.00011,0.98307,0.49165,0.00084
365,-11921.75,2105.79,-0.00189,0.94497,0.47059,0.00265
366,-12072.13,2052.92,0.00638,0.98836,0.50055,0.00424
367,-11870.35,2014.16,-0.00665,0.96199,0.47435,0.00096
368,-11702.66,1893.81,0.00234,0.97193,0.48831,0.00244
369,-11959.95,2169.76,-0.00554,0.95878,0.47385,0.00449
370,-12057.07,2287.1,-0.00713,0.94955,0.46765,0.00201
371,-11896.31,2339.14,-0.00269,0.96034,0.47748,0.00115
372,-11665.74,2271.66,-0.0027,0.96236,0.47848,0.00214
373,-11676.25,2445.63,-0.00016,0.9637,0.48169,0.00204
374,-11587.71,2177.32,0.01042,0.96189,0.49137,0.00863
375,-12037.01,2141.5,0.0081,0.95786,0.48703,0.0056
376,-12027.25,2358.49,0.00214,0.95478,0.47953,0.00489
377,-11859.43,2131.65,-2e-05,0.95313,0.47655,0.00172
378,-11723.76,2218.08,-0.00168,0.98362,0.49012,0.00203
379,-12285.21,2209.8,0.00079,0.97214,0.48686,0.00548
380,-12043.03,2165.51,-0.0086,0.96926,0.47603,0.00403
381,-11970.43,2361.7,-0.00569,0.94245,0.46553,0.00109
382,-11865.95,2486.74,-0.0058,0.94688,0.46764,0.00188
383,-11952.72,2275.85,-2e-05,0.93569,0.46782,0.00187
384,-12439.81,2442.84,-0.00911,0.95154,0.46666,0.00174
385,-11661.54,2049.82,-0.00314,0.97212,0.48292,0.00147
386,-11793.96,2093.38,-0.00396,0.95517,0.47362,0.00128
387,-11827.89,2185.5,-0.00747,0.95817,0.47162,0.00224
388,-11853.06,2360.27,-0.00579,0.97812,0.48327,0.00155
389,-11711.17,2493.1,-0.00658,0.94289,0.46487,0.00046
390,-12088.47,2073.6,-0.00463,0.96333,0.47703,0.00019
391,-11480.88,1957.53,-0.00572,0.95557,0.47206,0.00436
392,-11784.04,2224.05,-0.0027,0.98605,0.49033,0.00129
393,-11846.58,2358.3,-0.00806,0.97197,0.47793,0.00203
394,-11498.63,2045.44,-0.00758,0.9594,0.47212,0.00438
395,-11638.86,2166.07,-0.00424,0.97276,0.48214,0.00252
396,-11850.35,1970.48,-0.00034,0.97431,0.48681,0.00364
397,-11410.47,1828.1,-0.00651,0.95402,0.47049,0.00185
398,-11597.54,2089.9,-0.00744,0.96603,0.47558,0.00141
399,-11760.75,2365.71,-0.00412,0.95599,0.47387,0.00074
400,-12383.69,2341.97,-0.00499,0.93658,0.4633,0.00108
401,-11482.05,2139.76,-0.00565,0.9586,0.47365,0.00173
402,-12082.64,2389.21,-0.00794,0.96925,0.47669,0.00078
403,-11887.38,2194.16,-0.00451,0.94441,0.4677,0.00557
404,-11734.55,2434.62,-0.00514,0.97058,0.48015,0.0021
405,-12221.45,2146.51,-0.00445,0.947,0.46905,0.0027
406,-12211.49,2183.39,-0.00707,0.99209,0.48897,0.00127
407,-11825.49,2120.4,-0.00073,0.9746,0.48657,0.00391
408,-11869.93,2131.02,-0.01074,0.95585,0.46718,0.00251
409,-11787.03,2280.7,-0.00677,0.95832,0.47239,0.00209
410,-11973.82,2490.86,0.00084,0.97575,0.48871,0.00412
411,-11702.12,2156.11,-0.0046,0.98073,0.48577,0.00232
412,-11666.77,2058.89,-0.00465,0.97869,0.4847,0.00229
413,-11814.47,2124.83,-0.00685,0.96248,0.47439,0.00115
414,-11779.3,2167.84,-0.00776,0.96452,0.4745,0.00143
415,-12066.34,2029.63,-0.00815,0.96154,0.47262,0.00169
416,-11856.27,2210.41,-0.00435,0.98074,0.48602,0.00115
417,-11697.41,2352.49,0.00281,0.95909,0.48236,0.00499
418,-11812.65,2289.95,-0.00325,0.94192,0.46772,0.00244
419,-11689.11,2225.81,-0.00479,0.96456,0.47749,0.00615
420,-12005.91,2245.85,-0.00639,0.98715,0.48719,0.0039
421,-11509.18,2107.15,-0.00582,0.95031,0.46933,0.00077
422,-12073.07,2146.88,-0.00313,0.95169,0.47272,0.00228
423,-11879.75,2298.95,-0.00796,0.97119,0.47763,0.00264
424,-11874.65,2317.54,-0.00588,0.93441,0.46133,0.0008
425,-11744.97,2145.22,-0.00531,0.94036,0.46487,0.0008
426,-11819.09,2174.82,-0.01062,0.95603,0.46739,0.00132
427,-11781.24,2057.89,0.00548,0.95326,0.48211,0.0036
428,-11796.8,2070.02,0.00066,0.97188,0.4866,0.00364
429,-11669.79,2041.96,-0.00186,0.96521,0.48074,0.00226
430,-11641.77,2091.17,-0.00447,0.95097,0.47101,0.00249
431,-11947.55,2123.88,-0.00331,0.96067,0.47702,0.00212
432,-11717.05,2175.83,-0.00116,0.96592,0.4818,0.004
433,-11720.31,2177.81,-0.00222,0.99175,0.49366,0.00543
434,-12051.87,2068.04,0.00042,0.98283,0.49184,0.00319
435,-11623.98,2158.18,-0.00262,0.94756,0.47116,0.00075
436,-11521.65,2414.49,-0.00199,0.95237,0.4742,0.00198
437,-11453.32,2164.11,0.00014,0.95336,0.47682,0.0015
438,-11708.89,2096.49,-0.00152,0.94584,0.4714,0.0014
439,-11565.41,2212.08,-0.0011,0.9902,0.494,0.00362
440,-11388.28,2279.69,-0.00051,0.92818,0.46358,0.00415
441,-11767.17,2105.86,-0.0009,0.99574,0.49697,0.00479
442,-11535.86,1861.22,-0.00465,0.95391,0.4723,0.00562
443,-11727.84,2258.03,-0.00334,0.95253,0.47293,0.00126
444,-11590.13,2140.12,-0.00559,0.99039,0.4896,0.00191
445,-11772.05,2000.83,-0.00498,0.94964,0.46984,0.00256
446,-11434.63,2280.4,-0.00097,0.96411,0.48108,0.00128
447,-11769.67,2200.88,-0.00368,0.95028,0.47146,0.00264
448,-11620.42,2021.26,-0.00708,0.9567,0.47127,0.00043
449,-11415.1,2098.99,-0.00798,0.95569,0.46987,0.00356
450,-12003.65,2352.7,0.00204,0.96346,0.48377,0.0021
451,-11818.43,2189.53,-0.00099,0.95436,0.47619,0.00171
452,-11618.93,1907.27,-0.00873,0.96575,0.47414,0.00315
453,-11434.38,2107.0,-0.00756,0.96594,0.47541,0.00154
454,-11399.48,2240.31,-0.00676,0.93065,0.45856,0.00135
455,-11226.42,2032.08,-0.00373,0.96414,0.47834,0.00419
456,-11319.33,2133.13,-0.00019,0.97879,0.48921,0.00243
457,-11538.4,2506.79,-0.01027,0.95759,0.46853,0.00646
458,-11988.55,2080.11,-0.00625,1.01317,0.50033,0.00372
459,-12016.77,2041.71,-0.00406,0.95368,0.47278,0.00274
460,-11938.58,2260.56,-0.00518,0.97274,0.48119,0.00584
461,-11387.26,2209.01,-0.0023,0.96894,0.48217,0.00252
462,-11790.34,2221.21,-0.00684,0.94791,0.46712,0.00237
463,-11649.12,2507.4,-0.00778,0.96542,0.47493,0.00251
464,-11772.77,2052.69,-0.00643,0.97776,0.48245,0.00294
465,-11288.18,2001.98,-0.00766,0.95378,0.46923,0.0031
466,-11826.91,2286.76,0.00161,0.95251,0.47786,0.00396
467,-11530.81,2215.34,-0.00252,0.95902,0.477,0.00079
468,-11824.12,2200.12,-0.00231,0.94657,0.47098,0.00048
469,-11491.01,2231.82,-0.00583,0.98487,0.48661,0.00124
470,-11614.07,2249.2,0.00191,0.98129,0.49255,0.0031
471,-11530.88,2195.17,-0.00864,0.95716,0.46994,0.00302
472,-11613.88,1890.67,-0.00857,0.95534,0.4691,0.00624
473,-11569.65,1975.3,-0.01136,0.95077,0.46402,0.00352
474,-11728.84,2175.72,-0.0066,0.95986,0.47333,0.00497
475,-11483.92,1858.31,-0.00972,0.97994,0.48025,0.00218
476,-11255.44,2077.68,-0.00762,0.9561,0.47043,0.00337
477,-11777.87,2167.98,-0.00299,0.97767,0.48585,0.00292
478,-11286.02,2067.77,-0.01407,0.96719,0.46952,0.0028
479,-11545.18,2137.09,0.00191,0.95832,0.48107,0.0019
480,-11548.72,2084.29,-0.00384,0.94696,0.46964,0.00145
481,-11590.5,2066.25,-0.00375,0.9445,0.4685,0.00162
482,-11688.88,2175.04,0.00432,0.94769,0.47817,0.0097
483,-11317.64,2161.11,0.00554,0.97991,0.49549,0.00635
484,-11450.9,2071.96,-0.00098,0.95803,0.47804,0.00515
485,-11487.96,2217.83,0.00176,0.94638,0.47495,0.00458
486,-11265.31,1927.44,0.00151,0.95881,0.48092,0.00295
487,-11351.7,1952.44,0.00349,0.96813,0.48755,0.00347
488,-11526.34,2015.43,-0.00809,0.92388,0.45385,0.00132
489,-11403.91,2059.96,-0.00225,0.95365,0.47458,0.0015
490,-11174.3,1785.53,-0.00227,0.96762,0.48154,0.00111
491,-11166.64,2195.77,-0.00616,0.94161,0.46465,0.00186
492,-11203.87,2080.84,-0.00315,0.95347,0.47359,0.00109
493,-11657.75,2327.06,-0.01082,0.9809,0.47963,0.00096
494,-11302.59,2107.04,-0.00466,0.93829,0.46449,0.00086
495,-11589.95,2448.06,-0.0065,0.93978,0.46339,0.00084
496,-11636.85,2387.46,-0.00627,0.93985,0.46366,0.00283
497,-11326.82,1967.33,-0.00157,0.96336,0.48011,0.00183
498,-11304.64,2282.19,-0.00622,0.96696,0.47726,0.00463
499,-11331.73,1963.47,-0.00082,0.96885,0.4836,0.00152
500,-11541.26,2346.11,-0.00751,0.94937,0.46718,0.00163
501,-11173.6,1889.8,0.00835,0.9562,0.48645,0.00651
502,-11635.59,2179.76,0.00017,0.94946,0.4749,0.00495
503,-11369.48,2139.2,-0.00855,0.94877,0.46584,0.00131
504,-11061.17,2064.32,-0.00354,0.95062,0.47176,0.00274
505,-11030.69,2074.56,-0.00667,0.927,0.45683,0.00369
506,-11391.78,2037.58,-0.00619,0.96784,0.47773,0.00053
507,-11418.22,2427.54,-0.00747,0.94705,0.46605,0.00142
508,-11173.39,2199.1,-0.00017,0.963,0.48132,0.00425
509,-11371.68,2331.63,0.00296,0.97026,0.48809,0.00306
510,-11274.04,2283.3,0.00581,0.95385,0.48273,0.0055
511,-11039.18,2250.25,0.00353,0.95274,0.47991,0.00341
512,-11154.77,1912.73,-0.00083,0.94456,0.47144,0.00253
513,-11303.41,2027.99,0.00472,0.9587,0.48407,0.00314
514,-11235.27,1899.94,-0.00637,0.9448,0.46602,0.00192
515,-11180.96,2163.11,0.00018,0.93519,0.46778,0.00154
516,-11441.59,1951.37,-0.00599,0.94938,0.46869,0.00199
517,-11029.59,2206.61,-0.00429,0.925,0.45821,0.00716
518,-11833.24,1965.32,-0.00512,0.94759,0.46867,0.00691
519,-11304.51,2362.89,-0.00314,0.93373,0.46372,0.01115
520,-11214.23,2127.31,-0.00606,0.96923,0.47856,0.00587
521,-11080.06,2336.24,-0.00918,0.93543,0.45853,0.00458
522,-10935.85,2204.55,-0.01219,0.94509,0.46035,0.00143
523,-11852.95,2039.18,-0.01497,0.94504,0.45755,0.00224
524,-11241.09,2032.92,-0.01443,0.9691,0.47012,0.00441
525,-11257.34,2177.7,-0.00395,0.96203,0.47706,0.0069
526,-11253.48,1809.18,-0.01336,0.96688,0.47008,0.00398
527,-11351.79,2071.0,-0.02054,0.92625,0.44258,0.00597
528,-11400.09,2292.26,-0.00471,0.9147,0.45265,0.00535
529,-11083.77,1921.67,-0.01126,0.92897,0.45322,0.00192
530,-10986.91,2037.23,-0.01112,0.92984,0.4538,0.00254
531,-11005.25,1864.63,-0.00604,0.9538,0.47086,0.0024
532,-11260.87,2000.8,-0.00562,0.94358,0.46617,0.00076
533,-11013.45,2022.13,0.00113,0.94634,0.47431,0.00226
534,-11351.39,2120.97,-0.00871,0.95955,0.47106,0.00487
535,-11039.63,2296.1,-0.0062,0.95019,0.4689,0.00079
536,-10941.99,2233.66,-0.00892,0.96786,0.47501,0.00233
537,-10964.38,2058.87,-0.00239,0.94155,0.46839,0.00159
538,-10937.08,1938.7,-0.00872,0.93755,0.46005,0.00119
539,-11389.14,2344.69,-0.00564,0.94703,0.46788,0.00085
540,-11062.39,1918.94,-0.00508,0.95959,0.47471,0.00118
541,-11220.37,2236.32,-0.00396,0.97085,0.48147,0.00379
542,-11235.88,1975.68,-0.00543,0.92464,0.4569,0.00122
543,-11345.43,1962.5,-0.00695,0.93569,0.4609,0.00084
544,-10901.83,2028.12,0.00099,0.93309,0.46754,0.00364
545,-11168.0,2150.79,-0.00103,0.9713,0.48462,0.003
546,-10995.79,2116.16,0.00191,0.92711,0.46547,0.00126
547,-10727.94,2284.43,-0.00723,0.94135,0.46344,0.00109
548,-10814.76,2115.34,-0.0047,0.96299,0.47679,0.00119
549,-11370.28,1987.75,-0.00473,0.97533,0.48293,0.00204
550,-11096.97,2241.06,-0.00826,0.96644,0.47496,0.00128
551,-11050.11,2320.52,-0.00088,0.95544,0.47684,0.00303
552,-10905.18,1870.26,-0.00736,0.94702,0.46615,0.00279
553,-10822.96,1953.18,-0.0068,0.94963,0.46802,0.00139
554,-11328.63,2100.21,-0.00931,0.94558,0.46348,0.00335
555,-10917.38,2152.48,-0.0047,0.97645,0.48353,0.00076
556,-10899.76,2238.96,-0.00393,0.94364,0.46789,0.00164
557,-10901.13,2251.18,-0.00116,0.91684,0.45726,0.00482
558,-10935.1,2051.52,0.00048,0.92931,0.46513,0.00582
559,-10683.73,2210.97,-0.00693,0.96294,0.47454,0.00067
560,-11107.97,2198.83,-0.00755,0.94793,0.46641,0.00107
561,-10709.85,1986.8,-0.00909,0.95751,0.46967,0.00273
562,-11070.41,1997.11,0.00038,0.96327,0.48201,0.00369
563,-10694.01,1885.63,-0.01456,0.93685,0.45387,0.00292
564,-10908.96,2078.69,-0.0004,0.95094,0.47507,0.0075
565,-10781.16,2272.23,-0.00369,0.91653,0.45458,0.001
566,-10680.96,1925.58,-0.0077,0.95462,0.46961,0.00124
567,-10791.2,2001.6,-0.00536,0.93953,0.46441,0.00456
568,-10836.69,2139.81,-0.01045,0.93048,0.45479,0.00083
569,-10991.86,2235.49,-0.00635,0.93158,0.45944,0.00145
570,-10681.42,2258.27,-0.00952,0.91416,0.44756,0.00216
571,-10771.34,2067.67,-0.01326,0.94636,0.45992,0.00403
572,-11084.15,2125.97,-0.00694,0.96204,0.47408,0.00368
573,-10538.56,1832.04,-0.01042,0.94518,0.46217,0.00137
574,-10883.89,2527.97,-0.01051,0.93683,0.4579,0.00275
575,-10598.67,1929.3,-0.00307,0.96207,0.47796,0.00238
576,-10511.99,1953.47,0.00034,0.93458,0.46763,0.00526
577,-10722.43,1978.2,-0.00387,0.9602,0.47623,0.00712
578,-10391.59,1906.54,-0.0069,0.92683,0.45652,0.00197
579,-10632.6,1946.37,0.00192,0.93036,0.4671,0.00226
580,-10727.93,2216.69,-0.00484,0.93161,0.46096,0.00271
581,-10877.76,2234.41,-0.0089,0.94564,0.46392,0.00274
582,-10752.25,2446.71,-0.00466,0.98326,0.48696,0.00153
583,-10602.1,1985.05,-0.00646,0.91571,0.4514,0.00303
584,-10924.03,2094.12,-0.00612,0.92094,0.45435,0.00162
585,-10749.68,1985.31,0.00162,0.98801,0.49563,0.00509
586,-10657.86,1951.14,-0.01233,0.93286,0.4541,0.0012
587,-10920.06,2099.18,-0.01362,0.96717,0.46996,0.00494
588,-10463.73,2026.87,-0.01198,0.97781,0.47692,0.00556
589,-10709.84,2305.72,-0.01274,0.95945,0.46699,0.00361
590,-10522.13,2032.43,-0.00371,0.97377,0.48318,0.00666
591,-10621.42,2121.86,-0.01263,0.94159,0.45817,0.0027
592,-10697.84,1922.97,-0.00925,0.94436,0.46293,0.00374
593,-10516.7,1998.74,-0.00355,0.93353,0.46321,0.01012
594,-10583.77,1938.08,-0.00502,0.96247,0.47622,0.00317
595,-10704.13,2103.53,-0.00917,0.95195,0.4668,0.00193
596,-10440.41,2150.67,-0.00367,0.96601,0.47933,0.00383
597,-10774.04,2231.38,-0.00509,0.93286,0.46135,0.00153
598,-10419.6,1827.4,0.00075,0.95941,0.48046,0.00164
599,-10526.61,2031.02,-0.00376,0.96301,0.47775,0.00093
600,-10644.25,2095.33,-0.00865,0.91318,0.44794,0.00137
601,-10725.2,2160.11,-0.00735,0.97179,0.47854,0.00221
602,-10555.69,2219.21,-0.01182,0.93388,0.45512,0.00473
603,-10685.19,1963.97,0.00184,0.99354,0.49861,0.0052
604,-10537.03,1984.36,-0.00452,0.95815,0.47455,0.00684
605,-10634.97,1909.96,-0.00717,0.94337,0.46451,0.00095
606,-10311.34,2194.6,-0.00695,0.95634,0.47122,0.0019
607,-10055.97,1895.84,-0.00483,0.93855,0.46444,0.00148
608,-10647.69,2005.5,-0.00278,0.964,0.47922,0.00212
609,-10412.71,2120.42,-0.01014,0.96157,0.47064,0.00187
610,-10461.34,1807.13,-0.01235,0.97455,0.47492,0.0063
611,-10162.33,1985.5,3e-05,0.9501,0.47508,0.00248
612,-10464.54,2093.08,0.00462,0.9451,0.47717,0.0065
613,-10610.9,2145.84,0.00779,0.93698,0.47628,0.00593
614,-10556.4,2133.19,-0.001,0.91705,0.45753,0.00316
615,-10623.17,1914.42,-0.00064,0.95055,0.47463,0.00453
616,-10012.76,1860.57,-0.01188,0.99978,0.48801,0.00244
617,-10310.32,1654.79,-0.00784,0.95786,0.47109,0.00407
618,-10305.09,1957.98,-0.0001,0.95407,0.47694,0.0018
619,-10134.23,1913.09,-0.01217,0.93786,0.45676,0.00511
620,-10413.35,1804.0,0.00225,0.94048,0.47249,0.00623
621,-10247.2,2108.11,-0.01087,0.94923,0.46374,0.0035
622,-10129.57,1899.13,-0.00474,0.97257,0.48155,0.00221
623,-10353.5,2037.93,-0.00346,0.97914,0.48611,0.00558
624,-10444.11,1931.66,-0.0221,0.9163,0.43605,0.00472
625,-10529.1,2107.89,-0.00995,0.94022,0.46016,0.00824
626,-10628.37,2134.07,-0.01246,0.95139,0.46323,0.00568
627,-10214.22,2059.66,7e-05,0.94753,0.47383,0.00753
628,-10832.99,1981.54,-0.01564,0.97607,0.47239,0.00268
629,-10476.29,2293.81,-0.01228,0.92105,0.44825,0.00154
630,-10139.72,2088.08,-0.01385,0.9293,0.4508,0.00161
631,-10135.62,2015.25,-0.00993,0.98607,0.48311,0.00265
632,-10493.04,2131.75,-0.01182,0.95043,0.4634,0.00216
633,-10222.26,2221.09,-0.00085,0.91852,0.45842,0.00436
634,-10049.72,1881.77,-0.00422,0.97454,0.48305,0.00271
635,-10570.05,2123.6,0.01559,0.92649,0.47884,0.02179
636,-9849.38,1771.64,-0.00299,0.91066,0.45234,0.00171
637,-9759.85,2137.74,-0.01303,0.93031,0.45212,0.00101
638,-9690.63,1845.97,-0.01,0.94587,0.46294,0.00137
639,-10412.04,2067.36,-0.0126,0.96861,0.4717,0.00224
640,-10406.86,2004.65,-0.01014,0.92436,0.45204,0.00248
641,-10510.94,2339.21,-0.0067,0.95593,0.47127,0.00245
642,-10308.49,1930.73,-0.00624,0.95007,0.4688,0.00336
643,-10208.89,1931.88,-0.00783,0.94284,0.46359,0.00235
644,-10174.31,2001.41,-0.01159,0.93238,0.45461,0.00247
645,-10188.15,2233.36,-0.01329,0.92344,0.44843,0.0019
646,-9799.43,1933.89,-0.00345,0.95468,0.47389,0.00322
647,-10116.8,2123.87,-0.01735,0.9877,0.4765,0.00426
648,-9901.35,1984.14,-0.01708,0.95054,0.45819,0.00185
649,-10009.97,1959.84,-0.0085,0.95805,0.47052,0.00347
650,-10428.36,2205.17,-0.01122,0.96968,0.47362,0.00586
651,-10048.84,2124.43,-0.01552,0.94017,0.45457,0.01301
652,-10134.82,1921.6,-0.0018,0.94416,0.47028,0.01145
653,-9703.95,1859.67,0.00469,0.99595,0.50267,0.00393
654,-10198.08,1930.79,0.01332,0.96082,0.49373,0.00811
655,-9632.82,1904.01,0.00627,0.93663,0.47459,0.02029
656,-10309.28,2048.04,0.00403,0.9298,0.46894,0.00662
657,-9948.62,1925.9,-0.00505,0.95008,0.46999,0.00403
658,-10068.1,2166.23,-0.00567,0.97356,0.48111,0.01086
659,-10185.05,2043.61,-0.01477,0.94185,0.45615,0.00262
660,-9753.37,2171.84,-0.00955,0.91262,0.44676,0.0084
661,-9849.38,1776.13,-0.0136,0.93271,0.45276,0.00225
662,-10084.7,1953.61,-0.00328,0.94698,0.47021,0.00328
663,-10087.22,2097.82,-0.0109,0.98089,0.47954,0.00385
664,-10290.59,1751.13,-0.00633,0.92511,0.45623,0.00311
665,-10023.25,2001.27,-0.01831,0.95127,0.45732,0.00626
666,-9913.61,1927.93,-0.01315,0.9576,0.46565,0.00499
667,-9969.67,2019.54,-0.00915,0.9419,0.4618,0.00223
668,-9549.9,1889.63,-0.00582,0.97554,0.48195,0.00313
669,-9884.32,1725.56,-0.00511,0.92056,0.45517,0.00281
670,-10015.26,1826.4,0.00031,0.9597,0.48016,0.0045
671,-9803.46,2043.8,-0.01073,0.94173,0.46014,0.00456
672,-9888.29,2049.9,-0.01303,0.98068,0.47731,0.00214
673,-9865.64,1963.78,-0.00796,0.92698,0.45554,0.00174
674,-9767.97,1963.73,-0.00025,0.93727,0.46839,0.00753
675,-10043.61,2161.93,-0.01302,0.95776,0.46586,0.00212
676,-9582.51,1975.26,-0.01059,0.93989,0.45936,0.00222
677,-9809.39,1913.07,-0.00431,0.90218,0.44678,0.00145
678,-9545.42,1879.33,-0.00174,0.91739,0.45696,0.00389
679,-9671.33,1744.71,0.00118,0.92881,0.46559,0.00472
680,-9749.92,1919.48,-0.01797,0.9587,0.46138,0.00427
681,-9923.4,1904.95,-0.00251,0.96025,0.47761,0.01273
682,-9477.82,1831.36,-0.01908,0.934,0.44792,0.00213
683,-9649.5,1803.68,-0.00833,0.97293,0.47814,0.00102
684,-9756.14,1816.84,-0.00869,0.93573,0.45918,0.00333
685,-9523.84,1859.0,-0.00192,0.95016,0.47316,0.0152
686,-9485.43,1734.99,-0.00343,0.91386,0.4535,0.00133
687,-9654.06,1854.81,-0.0072,0.93907,0.46234,0.002
688,-9330.15,1871.27,-0.0096,0.92896,0.45488,0.00055
689,-9484.8,1823.15,-0.01037,0.94155,0.46041,0.0014
690,-9634.35,1803.28,-0.00937,0.93629,0.45878,0.00374
691,-9400.07,1760.36,-0.006,0.96553,0.47676,0.00099
692,-9515.09,1811.35,-0.01142,0.93541,0.45628,0.00351
693,-9380.1,1879.77,-0.01407,0.95973,0.46579,0.00156
694,-9562.57,1872.58,-0.009,0.9402,0.4611,0.00145
695,-9484.55,1905.76,-0.00903,0.96882,0.47538,0.00083
696,-9294.27,1769.98,-0.00407,0.94713,0.4695,0.00527
697,-9410.58,1827.53,-0.01208,0.91068,0.44326,0.00229
698,-9793.37,1895.84,-0.01588,0.92408,0.44616,0.00193
699,-9814.26,1952.17,-0.00874,0.94253,0.46253,0.00395
700,-9515.37,1881.78,-0.01506,0.93572,0.4528,0.00725
701,-9617.44,1966.74,-0.02153,0.92026,0.4386,0.00762
702,-9964.5,1895.72,-0.01051,0.94861,0.4638,0.018
703,-9636.25,2052.05,-0.01323,0.95364,0.46359,0.00683
704,-9448.24,1768.48,-0.01415,0.895,0.43335,0.00576
705,-9425.34,1838.05,-0.01214,0.94988,0.4628,0.00356
706,-9369.03,1699.23,-0.00754,0.93242,0.45867,0.0066
707,-9458.8,1896.5,-0.01636,0.92457,0.44592,0.00217
708,-9516.06,1761.91,-0.01004,0.9783,0.47911,0.0022
709,-9133.68,1984.14,-0.01028,0.87676,0.4281,0.00469
710,-9706.79,1932.25,-0.01216,0.94467,0.46017,0.00076
711,-9375.09,1868.44,-0.00513,0.93958,0.46466,0.00515
712,-9463.86,1610.74,-0.01082,0.9167,0.44753,0.00262
713,-9449.26,1918.12,-0.00685,0.9172,0.45174,0.00228
714,-9161.89,1655.81,-0.01453,0.94219,0.45656,0.00547
715,-9627.05,2100.07,-0.00806,0.95904,0.47145,0.00184
716,-9206.46,1725.8,-0.00943,0.95248,0.46681,0.00439
717,-9279.47,1729.73,0.00141,0.95619,0.47951,0.00551
718,-9604.1,1655.32,0.00679,0.95927,0.48642,0.00538
719,-9241.19,1891.21,-0.01223,0.90755,0.44155,0.00255
720,-9473.08,1738.49,-0.00804,0.94012,0.46202,0.00082
721,-9370.74,1823.22,-0.0131,0.92064,0.44721,0.00173
722,-9377.59,1841.54,-0.01948,0.90053,0.43078,0.00423
723,-9117.56,1964.52,-0.01369,0.95486,0.46374,0.0075
724,-9224.72,1761.72,-0.01126,0.91085,0.44416,0.00145
725,-8932.62,1677.98,-0.00803,0.9482,0.46607,0.0015
726,-9429.93,1815.88,0.00652,0.93541,0.47422,0.00594
727,-8913.69,1769.58,-0.00745,0.91974,0.45242,0.00079
728,-9079.58,1921.49,-0.01508,0.90336,0.4366,0.00277
729,-8883.21,1672.16,-0.0098,0.95551,0.46796,0.00231
730,-8895.64,1709.91,-0.01007,0.94142,0.46064,0.00275
731,-9419.87,1877.98,-0.00759,0.93002,0.45742,0.00659
732,-9267.05,1802.38,-0.00966,0.92283,0.45176,0.00147
733,-9395.5,2026.41,-0.00789,0.91223,0.44822,0.00285
734,-9238.33,2000.56,-0.00232,0.90896,0.45216,0.00607
735,-9138.79,1892.85,-0.00734,0.94342,0.46437,0.00634
736,-9211.6,2074.94,0.00026,0.89868,0.4496,0.00468
737,-8722.3,1862.53,-0.00765,0.93022,0.45746,0.00117
738,-9117.54,2008.15,-0.00708,0.90701,0.44643,0.00279
739,-9398.21,1734.26,-0.01055,0.97542,0.47716,0.00709
740,-8695.14,1757.07,0.00417,0.92268,0.4655,0.01683
741,-8997.24,1962.46,0.01137,0.94362,0.48318,0.00793
742,-8838.28,1579.74,-0.00903,0.96214,0.47204,0.00063
743,-8877.76,1893.35,-0.00366,0.9362,0.46444,0.0141
744,-8914.31,1865.4,-0.01356,0.95102,0.46195,0.00666
745,-9009.43,1894.84,-0.01103,0.89876,0.43834,0.00201
746,-9001.72,1790.72,-0.01076,0.96276,0.47062,0.00149
747,-8923.59,1827.89,-0.01016,0.92405,0.45187,0.0029
748,-9001.41,1720.96,-0.01662,0.94081,0.45379,0.0012
749,-8870.08,1686.17,-0.01546,0.93612,0.4526,0.00092
750,-9076.05,1719.39,-0.00932,0.99328,0.48732,0.0026
751,-8524.06,1545.1,-0.00128,0.93826,0.46785,0.004
752,-8767.66,1607.35,0.00271,0.9599,0.48266,0.01574
753,-8926.6,1694.98,-0.00797,0.93028,0.45717,0.00831
754,-8631.79,1647.64,-0.00504,0.93432,0.46212,0.00498
755,-8898.16,1573.53,-0.00517,0.92085,0.45525,0.00381
756,-8925.52,1905.5,0.00122,0.95133,0.47688,0.01311
757,-9182.88,1786.39,-0.00748,0.90995,0.44749,0.00159
758,-8590.82,1594.03,-0.0113,0.94409,0.46074,0.00108
759,-8878.42,1641.29,-0.0075,0.97103,0.47801,0.00183
760,-8462.71,1554.9,-0.01447,0.97482,0.47294,0.00253
761,-8606.16,1708.37,-0.00859,0.93864,0.46073,0.0042
762,-8556.11,1531.54,-0.00162,0.9255,0.46113,0.00349
763,-8990.97,1755.42,-0.01481,0.94335,0.45687,0.00092
764,-8788.87,1847.65,-0.0171,0.92142,0.44361,0.00656
765,-8582.19,1669.62,-0.01405,0.91967,0.44578,0.00096
766,-8555.28,1767.7,-0.0079,0.93674,0.46047,0.00203
767,-8639.44,1939.63,-0.00864,0.94743,0.46508,0.00099
768,-8906.56,1778.67,-0.00615,0.96982,0.47876,0.00086
769,-8538.03,1519.26,-0.00836,0.95897,0.47113,0.0041
770,-8564.9,1693.89,-0.01406,0.96594,0.46891,0.0017
771,-8729.03,1700.48,-0.00973,0.9574,0.46897,0.00123
772,-8546.45,1522.38,-0.0167,0.95402,0.46031,0.00145
773,-8530.84,1741.45,-0.01828,0.95021,0.45682,0.00159
774,-8269.05,1438.0,-0.01051,0.93764,0.45831,0.00103
775,-8637.36,1590.06,-0.01127,0.88316,0.43031,0.00275
776,-8672.88,1729.49,-0.00313,0.9831,0.48842,0.00373
777,-8574.41,1660.78,-0.01018,1.02732,0.50348,0.00312
778,-8483.15,1780.57,-0.01151,0.96846,0.47272,0.00172
779,-8425.91,1530.61,-0.00894,0.97421,0.47817,0.00264
780,-8032.12,1566.22,-0.01204,0.94225,0.45908,0.00256
781,-8349.5,1491.68,-0.01419,0.9337,0.45266,0.005
782,-8439.05,1678.39,-0.01049,0.92707,0.45304,0.00183
783,-8671.33,1606.12,-0.01886,0.93791,0.4501,0.0039
784,-8211.84,1321.81,-0.01255,0.97317,0.47404,0.00768
785,-8378.39,1805.91,-0.01667,0.95825,0.46245,0.01884
786,-8511.34,1740.57,-0.01271,0.92165,0.44811,0.00408
787,-8308.0,1901.93,-0.01333,0.94645,0.4599,0.00518
788,-8471.14,1556.64,0.00212,0.95715,0.4807,0.01887
789,-8240.62,1531.27,-0.00379,0.94276,0.46759,0.00483
790,-7974.32,1378.46,-0.0005,0.97677,0.48788,0.00971
791,-8375.17,1423.29,0.0047,0.93547,0.47243,0.00809
792,-8369.14,1544.7,-0.00744,0.97824,0.48168,0.01157
793,-8400.88,1499.32,-0.00362,0.96137,0.47706,0.00787
794,-8497.93,1590.55,-0.01344,0.92316,0.44814,0.00195
795,-8398.91,1546.14,-0.00708,0.95994,0.47289,0.00114
796,-8445.95,1765.02,-0.01006,0.9283,0.45409,0.00401
797,-7967.82,1451.48,-0.01715,0.9288,0.44725,0.00229
798,-8272.69,1519.11,-0.01286,0.9049,0.43959,0.0098
799,-8282.61,1781.4,0.00053,0.96576,0.48341,0.00617
800,-8025.98,1413.38,-0.00911,0.90543,0.4436,0.00255
801,-8325.59,1562.29,-0.01491,0.9603,0.46524,0.00249
802,-8375.26,1935.45,-0.01042,0.88959,0.43438,0.00388
803,-8145.67,1546.47,-0.00632,0.9329,0.46013,0.01414
804,-8246.91,1586.27,-0.01475,0.93494,0.45271,0.00263
805,-8205.3,1677.16,-0.01383,0.91899,0.44566,0.00672
806,-8023.24,1515.12,-0.01536,0.93342,0.45135,0.00382
807,-8052.49,1500.35,-0.00648,0.93822,0.46263,0.00797
808,-8130.99,1608.43,-0.00424,0.93187,0.46169,0.00687
809,-8210.48,1793.17,-0.00537,0.92302,0.45614,0.00232
810,-8037.75,1440.65,0.00664,0.98405,0.49867,0.02066
811,-7976.56,1564.99,0.00013,0.9272,0.46373,0.00199
812,-7913.75,1489.56,-0.0115,0.90516,0.44108,0.00478
813,-7939.43,1557.54,-0.01228,0.94066,0.45806,0.00252
814,-8275.79,1851.7,-0.01681,0.92119,0.44378,0.00436
815,-7946.48,1431.05,-0.01166,0.92889,0.45279,0.00095
816,-7660.4,1551.26,0.00238,0.91712,0.46094,0.00563
817,-7897.8,1561.32,-0.01104,0.92126,0.44959,0.00148
818,-7864.38,1397.01,-0.00684,0.91656,0.45144,0.00555
819,-8051.24,1403.03,-0.01154,0.94581,0.46137,0.00223
820,-7873.29,1568.38,-0.01325,0.94019,0.45685,0.00651
821,-8208.66,1441.88,-0.00164,0.93966,0.46819,0.02041
822,-8099.64,1547.12,-0.00345,0.93106,0.46208,0.03063
823,-8229.8,1513.34,0.00794,0.93409,0.47498,0.03307
824,-8103.04,1442.19,0.00056,0.9487,0.47491,0.01911
825,-7938.64,1349.97,0.02402,0.94372,0.49588,0.01718
826,-7948.91,1387.33,-0.00868,0.94301,0.46283,0.00425
827,-7724.77,1473.16,-0.00802,0.96232,0.47313,0.0055
828,-7982.4,1533.52,0.00615,0.93886,0.47558,0.01306
829,-7873.46,1419.99,-0.00765,0.97156,0.47813,0.00313
830,-7971.46,1455.04,-0.00608,0.95207,0.46996,0.00751
831,-7736.11,1416.66,-0.00448,0.89846,0.44475,0.00224
832,-7897.35,1559.43,-0.01455,0.95495,0.46293,0.00105
833,-8062.8,1789.03,-0.01845,0.9856,0.47435,0.00223
834,-7684.41,1314.26,-0.00997,0.91045,0.44525,0.0096
835,-7675.97,1410.53,-0.01864,0.94676,0.45474,0.00547
836,-7892.99,1203.57,-0.01407,0.95355,0.4627,0.00309
837,-7857.74,1521.02,-0.01327,0.93209,0.45277,0.00184
838,-7615.1,1343.33,-0.00419,0.9368,0.46421,0.00269
839,-7898.19,1460.8,-0.0163,0.91119,0.43929,0.00211
840,-7645.09,1341.22,-0.01037,0.92437,0.45182,0.00282
841,-7800.59,1528.54,-0.01049,0.95587,0.46745,0.00572
842,-7736.72,1331.34,-0.01953,0.89167,0.4263,0.00764
843,-7731.0,1436.33,-0.02331,0.90655,0.42997,0.00913
844,-7825.05,1455.11,-0.0156,0.91766,0.44324,0.01994
845,-7905.32,1906.51,0.0111,0.90933,0.46577,0.02719
846,-7775.47,1511.74,-0.01432,0.90744,0.4394,0.01644
847,-7711.38,1196.31,-0.01377,0.93986,0.45616,0.01177
848,-7817.23,1495.78,-0.01528,0.92928,0.44936,0.00231
849,-7689.99,1595.82,-0.01006,0.93205,0.45596,0.00296
850,-7496.21,1176.52,-0.01261,0.94691,0.46084,0.00162
851,-7914.74,1645.36,-0.0176,0.92415,0.44447,0.00321
852,-7561.48,1214.11,0.00475,0.90343,0.45647,0.00404
853,-7399.75,1408.13,0.00406,0.93001,0.46906,0.01012
854,-7568.33,1348.6,-0.00341,0.96001,0.4766,0.00763
855,-7302.19,1385.6,0.02246,0.96024,0.50258,0.02802
856,-7690.69,1492.27,0.03114,0.9592,0.51074,0.02745
857,-7661.2,1358.56,0.00651,0.94411,0.47857,0.02496
858,-7493.58,1285.27,0.00177,0.93758,0.47056,0.01699
859,-7485.45,1255.51,-0.01404,0.9325,0.45221,0.00217
860,-7542.85,1377.41,0.00175,0.9466,0.47504,0.01759
861,-7381.26,1134.26,-0.01326,0.9442,0.45884,0.00467
862,-7453.87,1209.58,-0.0061,0.99469,0.49125,0.01395
863,-7515.32,1425.02,0.01968,0.97456,0.50696,0.02918
864,-7716.74,1411.2,-0.01411,0.94247,0.45712,0.01206
865,-7602.28,1613.12,0.01561,0.9486,0.48991,0.01822
866,-7721.78,1520.99,-0.00883,0.92993,0.45613,0.00559
867,-7305.82,1175.76,-0.02651,0.93554,0.44126,0.00531
868,-7288.63,1330.94,-0.00391,0.92402,0.4581,0.0074
869,-7387.44,1327.35,-0.02048,0.9471,0.45306,0.00308
870,-7478.02,1327.13,-0.02138,0.89126,0.42425,0.00358
871,-7631.43,1427.61,-0.01441,0.94697,0.45907,0.00134
872,-7403.94,1238.55,-0.01266,0.97204,0.47336,0.001
873,-7483.29,1218.0,-0.01287,0.93292,0.45359,0.00605
874,-7502.05,1398.27,-0.01427,0.9213,0.44638,0.00583
875,-7193.87,1476.97,-0.02446,0.93003,0.44056,0.01199
876,-7190.76,1143.18,-0.01408,0.97434,0.47309,0.00319
877,-7235.97,1322.17,-0.00891,0.94284,0.46251,0.00427
878,-7302.67,1320.86,0.02018,0.9615,0.50094,0.01549
879,-7254.09,1239.29,0.02149,0.90272,0.47285,0.02922
880,-7403.29,1303.94,0.03662,0.98933,0.53128,0.05967
881,-7349.77,1363.59,0.01933,0.91583,0.47725,0.03925
882,-7353.19,1524.23,-0.00905,0.94153,0.46172,0.0108
883,-7507.79,1290.91,-0.00736,0.9791,0.48219,0.01333
884,-7459.73,1636.93,-0.00479,0.91973,0.45507,0.03734
885,-7626.96,1321.4,0.00101,0.96038,0.4812,0.09231
886,-7478.31,1071.28,0.0252,0.97564,0.51302,0.05443
887,-7584.22,1443.68,0.00591,0.8845,0.44816,0.04558
888,-7457.5,1353.02,0.00972,0.96486,0.49214,0.03368
889,-7558.77,1365.66,-0.01637,0.99775,0.48251,0.022
890,-7331.47,1494.43,-0.00831,0.91531,0.44935,0.00283
891,-7036.92,1227.49,-0.00601,0.99969,0.49383,0.0084
892,-7442.11,1236.21,0.00338,0.92151,0.46413,0.01489
893,-7163.41,1368.51,-0.00137,0.95892,0.47809,0.00421
894,-7379.99,1284.09,-0.01566,0.9197,0.44419,0.00461
895,-7249.09,1326.77,-0.01409,0.99662,0.48422,0.0029
896,-7199.89,1215.71,-0.01559,0.94531,0.45706,0.00897
897,-7188.94,1173.7,0.00118,0.92921,0.46578,0.01512
898,-7152.61,1145.34,-0.00978,0.94577,0.4631,0.00588
899,-7341.8,1506.07,-0.00786,0.96173,0.47301,0.00646
900,-7137.81,1205.06,-0.02036,0.93426,0.44677,0.00318
901,-7466.79,1358.74,-0.00486,0.93328,0.46178,0.01065
902,-6986.52,1043.68,-0.00032,0.97371,0.48653,0.00603
903,-6975.2,898.94,-0.00542,0.9943,0.49173,0.00458
904,-7267.37,1111.24,-0.0118,0.9144,0.44539,0.00485
905,-7216.1,1309.4,-0.01816,0.96938,0.46653,0.00506
906,-7029.68,1208.69,-0.01813,0.91003,0.43688,0.00449
907,-7481.15,1458.34,-0.01753,0.92235,0.44364,0.00516
908,-7405.74,1368.19,0.00095,0.98495,0.49343,0.02503
909,-7342.27,1304.51,-0.01651,0.93436,0.45067,0.03116
910,-7271.11,1242.82,-0.01989,0.93155,0.44588,0.01826
911,-7335.35,1085.94,-0.00794,0.93265,0.45838,0.00919
912,-6961.29,1277.96,0.00012,0.96257,0.48141,0.00198
913,-6958.51,1006.49,-0.01513,0.9852,0.47747,0.00272
914,-7154.76,1066.89,-0.01526,0.94079,0.45513,0.00742
915,-7030.7,1136.69,-0.00584,0.91854,0.45343,0.00215
916,-7127.49,1054.8,-0.00402,0.96446,0.47821,0.00111
917,-7091.32,1314.3,-0.01546,0.93207,0.45058,0.00204
918,-7270.22,1405.9,-0.01788,0.95533,0.45978,0.00871
919,-7019.47,1077.37,-0.01327,0.95312,0.46329,0.00544
920,-7007.99,1053.75,-0.00972,1.00214,0.49135,0.0081
921,-7290.5,1386.28,0.00896,0.99121,0.50456,0.03607
922,-6907.7,1023.86,-0.00942,0.92242,0.45178,0.00797
923,-7189.44,1323.89,-0.02105,0.96553,0.46172,0.00691
924,-7064.0,1180.7,-0.00339,0.92941,0.46131,0.00347
925,-7297.32,1358.5,-0.01492,0.91989,0.44502,0.00244
926,-7265.09,1289.06,-0.01761,0.94906,0.45692,0.00487
927,-6895.76,991.99,0.00334,0.96079,0.48374,0.00635
928,-7060.76,1242.3,-0.00934,0.95104,0.46618,0.00249
929,-7127.19,1081.7,0.00237,1.01747,0.51111,0.01909
930,-7009.03,1196.89,-0.00512,0.96194,0.47585,0.0046
931,-7236.89,1360.14,-0.01029,0.98437,0.48189,0.02667
932,-6972.53,1165.77,-0.01351,0.95088,0.46193,0.01076
933,-7260.4,1177.06,-0.01038,0.96225,0.47074,0.03433
934,-7208.88,1135.69,-0.00202,0.95985,0.47791,0.02032
935,-6936.17,1154.26,-0.01358,0.96864,0.47074,0.00742
936,-6956.88,1069.64,-0.00403,0.97609,0.48402,0.00692
937,-7412.97,1233.68,-0.00142,0.94962,0.47339,0.02467
938,-7080.53,1268.93,-0.00868,0.94279,0.46271,0.00332
939,-7349.69,1370.12,-0.01234,0.95959,0.46745,0.03034
940,-7259.64,1183.01,-0.00078,1.00103,0.49974,0.04542
941,-7224.69,1311.34,-0.01377,0.97259,0.47253,0.00595
942,-7009.19,978.04,-0.01629,0.97956,0.4735,0.00837
943,-7080.16,1072.19,-0.00933,0.96345,0.47239,0.01015
944,-7136.51,1080.66,-0.00803,0.93613,0.46004,0.00828
945,-7093.56,1279.84,-0.01827,0.96817,0.46582,0.00405
946,-7088.27,1169.83,-0.00662,0.94419,0.46547,0.02981
947,-7111.35,1162.5,-0.0019,0.97438,0.48529,0.02058
948,-6948.2,1091.19,-0.00716,0.93991,0.46279,0.01009
949,-6909.37,1056.85,0.0192,0.94608,0.49225,0.03566
950,-7108.95,1357.31,-0.01476,0.90488,0.43768,0.00293
951,-6811.26,958.47,-0.00878,0.99517,0.4888,0.00295
952,-6782.5,941.5,-0.01172,0.94708,0.46182,0.00497
953,-6926.95,1233.36,-0.0149,0.96663,0.46842,0.00846
954,-6942.18,1220.47,-0.00857,0.9726,0.47773,0.00774
955,-6753.81,1029.73,-0.00522,0.99084,0.4902,0.00949
956,-6831.58,1102.29,0.03671,0.98478,0.5291,0.03528
957,-6806.88,980.26,-0.0061,0.96569,0.47675,0.00963
958,-6784.34,982.13,-0.01033,0.99152,0.48543,0.00683
959,-6977.33,1094.85,-0.00476,0.94671,0.46859,0.00738
960,-6932.52,1211.73,-0.01182,0.95629,0.46633,0.00998
961,-6701.86,939.4,0.00999,0.98298,0.50148,0.01157
962,-6829.61,1194.18,0.02838,0.99207,0.52441,0.05548
963,-6899.54,1228.09,-0.00424,0.95373,0.47263,0.00181
964,-6672.15,966.28,-0.0193,0.97771,0.46955,0.00316
965,-6723.45,971.19,-0.00166,0.9624,0.47954,0.00211
966,-6617.85,1085.68,0.00473,0.94325,0.47636,0.01613
967,-6842.15,972.3,-0.00167,0.91531,0.45599,0.01265
968,-6792.93,1127.99,0.03339,0.94062,0.5037,0.02202
969,-6523.83,909.86,0.02428,0.92071,0.48464,0.03731
970,-6709.32,1230.82,0.00503,0.9346,0.47233,0.02829
971,-6683.44,1063.0,0.00518,0.93638,0.47337,0.01402
972,-6715.38,1031.71,-0.00669,0.93809,0.46235,0.01023
973,-6768.11,994.72,-0.00597,0.93712,0.46259,0.00433
974,-6805.19,1111.71,-0.00314,0.97153,0.48262,0.02171
975,-6913.79,1308.96,-0.01922,0.95849,0.46003,0.00498
976,-6678.46,1122.71,-0.01764,0.95397,0.45934,0.01297
977,-6919.15,1140.79,-0.00725,0.92127,0.45339,0.0164
978,-6762.29,1149.19,-0.01522,0.96408,0.46681,0.00648
979,-6869.13,1292.24,-0.0016,0.94597,0.47138,0.01427
980,-6868.72,1110.29,0.00087,0.98907,0.49541,0.01571
981,-6529.82,969.74,0.02185,0.94422,0.49396,0.03073
982,-6838.08,1023.23,0.04404,0.99714,0.54261,0.0723
983,-6503.75,946.24,0.02234,0.94384,0.49426,0.0285
984,-6640.81,854.87,0.00352,0.94181,0.47443,0.01365
985,-6762.85,1084.46,-0.0007,0.99701,0.4978,0.0092
986,-6741.89,1151.28,-0.0016,0.96904,0.48292,0.01075
987,-6561.71,963.18,0.01149,0.98707,0.50503,0.02187
988,-6517.4,1018.58,-0.00888,0.94099,0.46161,0.00518
989,-6768.16,1089.1,-0.00885,0.97237,0.47734,0.00477
990,-6677.17,782.76,0.0163,0.96491,0.49875,0.02487
991,-6586.31,1008.72,-0.00906,0.94865,0.46526,0.00995
992,-6585.85,934.8,-0.0005,0.93626,0.46763,0.00969
993,-6568.98,1115.19,-0.00793,0.95909,0.47161,0.01172
994,-6676.82,1070.28,-0.01063,0.92679,0.45276,0.00707
995,-6574.74,1056.32,-0.00562,0.95617,0.47247,0.00326
996,-6707.48,930.26,-0.0027,0.94408,0.46934,0.01373
997,-6646.77,1100.55,0.01031,0.92274,0.47168,0.02797
998,-6673.3,920.32,-0.00814,0.93768,0.4607,0.01947
999,-6698.63,1143.23,-0.01142,0.98015,0.47866,0.02939
1000,-7002.79,1215.91,-0.00578,0.97965,0.48405,0.0434
1001,-7107.51,1203.65,-0.00278,0.93853,0.46649,0.08361
1002,-6802.66,1221.66,-0.00029,0.97559,0.48751,0.06622
1003,-6751.49,1045.95,-0.01081,0.97472,0.47655,0.04522
1004,-6762.84,1040.58,0.00605,0.94974,0.48092,0.02618
1005,-6917.27,1071.34,-0.00504,0.92485,0.45738,0.02503
1006,-7055.79,1154.66,0.00171,0.9882,0.49581,0.07362
1007,-6851.57,1044.42,0.01087,0.9446,0.48317,0.03543
1008,-6809.14,985.07,-0.02075,0.97091,0.4647,0.00777
1009,-6770.68,948.93,-0.01856,0.96207,0.46248,0.00475
1010,-6779.95,1007.11,-0.01879,0.99257,0.4775,0.01759
1011,-6842.42,1188.62,-0.01872,0.96726,0.46491,0.01357
1012,-6783.27,1091.48,-0.01012,0.9549,0.46733,0.01033
1013,-6878.02,1143.66,-0.00051,0.96699,0.48299,0.01554
1014,-6643.17,853.07,-0.01166,0.95274,0.46471,0.00181
1015,-6792.07,1155.06,-0.00826,0.97134,0.47741,0.01982
1016,-6602.87,1010.51,0.00578,0.96303,0.4873,0.00798
1017,-6595.03,888.64,0.01269,0.96049,0.49294,0.0065
1018,-6714.38,1107.6,0.01878,0.94406,0.49081,0.06817
1019,-6443.56,989.08,0.03785,0.97021,0.52295,0.04659
1020,-6386.59,866.69,0.08929,0.96292,0.57075,0.12572
1021,-6483.07,790.62,0.03269,0.9691,0.51724,0.04958
1022,-6430.53,975.35,0.02905,0.99012,0.52411,0.03598
1023,-6435.41,845.67,0.01783,0.93708,0.48637,0.01832
1024,-6444.21,958.75,-0.00249,0.95701,0.47602,0.00682
1025,-6558.41,931.34,-0.00193,0.94582,0.47098,0.00357
1026,-6508.45,932.28,-0.00535,0.97869,0.484,0.02909
1027,-6478.27,942.12,-0.00644,0.97066,0.4789,0.02751
1028,-6299.28,896.21,0.00862,0.91724,0.46724,0.01924
1029,-6461.84,799.65,-0.00747,0.9596,0.47233,0.01291
1030,-6193.18,726.02,0.00905,0.96706,0.49259,0.01665
1031,-6297.26,703.3,0.02208,0.9433,0.49373,0.01939
1032,-6403.22,722.64,0.01686,0.98065,0.50718,0.01666
1033,-6382.67,832.03,0.00253,0.94894,0.477,0.02051
1034,-6274.14,707.49,0.00994,0.92739,0.47364,0.01014
1035,-6533.82,834.88,-0.01328,0.89641,0.43493,0.00505
1036,-6200.99,747.21,0.03533,0.94616,0.50841,0.04172
1037,-6468.23,918.97,-0.00365,0.95771,0.4752,0.01681
1038,-6439.53,837.04,-0.00586,0.97885,0.48357,0.02102
1039,-6514.52,763.96,-0.00351,0.91773,0.45536,0.012
1040,-6388.17,748.28,-0.00268,0.95957,0.47711,0.01834
1041,-6744.22,1087.22,0.00238,1.0189,0.51183,0.06005
1042,-6700.5,935.69,0.00272,0.9681,0.48677,0.0415
1043,-6580.46,900.0,0.016,0.95851,0.49526,0.06004
1044,-6480.07,1009.12,-0.00155,0.95863,0.47776,0.04634
1045,-6654.89,900.59,-0.00554,0.96866,0.47879,0.02218
1046,-6700.58,1014.54,-0.00791,0.9598,0.47199,0.04217
1047,-6618.97,950.12,-0.01401,0.98413,0.47805,0.02162
1048,-6545.07,973.65,-0.02126,0.94297,0.45022,0.02294
1049,-6565.04,1021.2,-0.00459,0.94024,0.46553,0.02533
1050,-6533.87,1128.51,-0.00954,0.98972,0.48532,0.02488
1051,-6601.54,1019.84,-0.02123,0.98594,0.47174,0.03398
1052,-6688.37,991.95,0.0063,0.96462,0.48861,0.14017
1053,-6420.63,950.38,0.0011,0.93685,0.46952,0.02884
1054,-6433.55,818.05,-0.01144,0.98191,0.47952,0.01527
1055,-6451.52,914.99,-0.01945,1.01524,0.48817,0.00807
1056,-6427.58,1001.14,-0.00898,0.98341,0.48272,0.00738
1057,-6403.17,826.22,0.01921,0.97112,0.50477,0.01639
1058,-6339.41,772.6,0.00786,0.97817,0.49694,0.00725
1059,-6385.36,764.66,0.00394,0.97992,0.49391,0.01067
1060,-6228.37,699.74,0.02866,0.965,0.51116,0.04232
1061,-6230.33,612.13,-0.00979,0.97496,0.47769,0.00819
1062,-6349.61,829.53,0.02745,0.98188,0.51839,0.03253
1063,-6334.1,591.04,-0.00517,0.974,0.48183,0.00421
1064,-6291.13,683.56,0.04055,0.99132,0.53621,0.04892
1065,-6384.71,846.81,0.0081,0.96739,0.4918,0.01881
1066,-6246.93,719.86,0.0202,0.95604,0.49822,0.03074
1067,-6290.81,956.61,0.00659,0.94293,0.47805,0.01923
1068,-6353.6,717.3,0.01112,0.96984,0.49604,0.02361
1069,-6335.87,909.65,-0.01368,0.93977,0.45621,0.00454
1070,-6257.41,705.16,-0.00625,0.93194,0.45972,0.00833
1071,-6294.72,686.06,0.04969,0.9483,0.52384,0.03834
1072,-6295.23,834.13,-0.01305,0.94745,0.46068,0.01334
1073,-6315.93,827.55,0.01942,0.9803,0.50957,0.01843
1074,-6318.08,875.25,0.01256,0.94459,0.48485,0.02579
1075,-6399.51,778.65,0.01456,0.94172,0.48542,0.01555
1076,-6291.96,719.13,-0.00074,0.94951,0.47401,0.0139
1077,-6394.01,1045.65,0.00815,0.94131,0.47881,0.01369
1078,-6394.26,797.58,0.01066,0.94482,0.48307,0.01456
1079,-6233.71,747.8,-0.00027,0.94987,0.47467,0.01815
1080,-6236.19,797.62,-0.01077,0.98566,0.48206,0.01743
1081,-6323.11,853.24,-0.00859,0.92935,0.45608,0.01314
1082,-6354.9,843.09,0.01198,0.97513,0.49955,0.01744
1083,-6335.43,863.39,-0.01596,0.97906,0.47357,0.00969
1084,-6209.32,779.87,-0.00622,0.96237,0.47497,0.00437
1085,-6227.29,762.53,-0.00166,0.94441,0.47055,0.00671
1086,-6323.37,919.26,-0.00385,0.9476,0.46995,0.01259
1087,-6265.85,868.71,-0.01412,0.99448,0.48312,0.00963
1088,-6233.03,724.06,0.02903,0.98929,0.52367,0.04058
1089,-6247.99,848.98,-0.00033,0.92993,0.46464,0.01318
1090,-6203.03,808.49,0.01692,0.96678,0.50031,0.04467
1091,-6289.74,736.46,-0.01159,0.95891,0.46786,0.01613
1092,-6149.67,734.72,0.01425,0.95318,0.49084,0.02537
1093,-6277.38,839.18,0.00731,0.94055,0.47758,0.02487
1094,-6236.99,768.18,-0.01097,0.9634,0.47073,0.0019
1095,-6234.65,735.06,-0.00867,0.91958,0.45112,0.00315
1096,-6130.44,788.51,-0.00088,0.95377,0.476,0.01359
1097,-6228.54,759.28,0.01398,0.94705,0.48751,0.02557
1098,-6330.65,707.76,0.00459,0.95628,0.48274,0.02923
1099,-6329.38,823.39,0.0099,0.92923,0.47452,0.03723
1100,-6242.0,852.06,-0.01396,0.95361,0.46285,0.01959
1101,-6299.73,810.02,-0.01326,0.93551,0.4545,0.00898
1102,-6111.45,700.77,-0.01338,0.99146,0.48235,0.00344
1103,-6137.92,787.01,-0.01714,0.99656,0.48114,0.00677
1104,-6258.25,822.41,-0.00205,0.95024,0.47308,0.01284
1105,-6253.55,677.93,0.00041,0.94895,0.47489,0.01375
1106,-6235.06,785.32,0.00951,0.98234,0.50068,0.02208
1107,-6223.91,778.38,0.05392,0.95425,0.53105,0.07927
1108,-6110.51,758.34,0.03993,0.9414,0.51064,0.05819
1109,-6167.8,910.02,0.04868,0.98943,0.5434,0.12375
1110,-6223.29,712.27,0.04787,0.96058,0.52816,0.06099
1111,-6169.44,704.33,0.02793,0.95619,0.50603,0.03152
1112,-6273.5,769.96,-0.00053,0.94595,0.47244,0.00307
1113,-6449.12,860.58,-0.00521,0.97353,0.48156,0.02227
1114,-6320.15,848.95,0.00711,0.95358,0.4839,0.02284
1115,-6322.54,731.88,0.00814,0.95097,0.48362,0.02466
1116,-6240.84,790.66,0.00326,0.94538,0.47595,0.04201
1117,-6165.76,816.0,0.03615,0.96472,0.51851,0.06354
1118,-6201.56,682.96,0.00819,0.94947,0.48292,0.04634
1119,-6174.36,802.53,0.01441,0.96299,0.49591,0.07725
1120,-6316.05,749.81,-0.00665,0.9785,0.4826,0.04338
1121,-6230.64,693.74,0.01255,0.94354,0.48432,0.06112
1122,-6311.26,828.32,-0.00441,0.9639,0.47754,0.07231
1123,-6424.89,891.69,0.01287,0.99543,0.51059,0.06968
1124,-6465.98,1080.63,0.00128,0.99824,0.5004,0.05132
1125,-6403.32,813.18,0.01241,0.99787,0.51134,0.04487
1126,-6475.91,880.35,0.01755,0.97373,0.50442,0.06802
1127,-6429.43,950.41,-0.0012,0.94979,0.4737,0.0192
1128,-6302.37,790.5,0.01682,0.98527,0.50946,0.04737
1129,-6330.32,932.5,-0.00627,0.97134,0.4794,0.0096
1130,-6370.16,802.46,-0.00612,0.97671,0.48223,0.00127
1131,-6387.57,911.69,-0.00272,0.99437,0.49447,0.0271
1132,-6426.02,858.89,0.0102,0.9773,0.49885,0.02584
1133,-6349.35,903.65,-0.00663,0.97323,0.47999,0.01722
1134,-6395.47,870.78,-0.00615,0.94728,0.46749,0.00343
1135,-6429.72,794.05,0.03658,0.97758,0.52537,0.04645
1136,-6354.58,756.43,0.04927,0.94927,0.52391,0.06652
1137,-6157.42,683.93,0.07782,0.9453,0.55047,0.21821
1138,-6171.75,846.8,0.01579,0.94134,0.48646,0.03585
1139,-6146.02,707.94,0.04121,0.93765,0.51004,0.07023
1140,-6282.3,929.69,0.01649,0.98705,0.51002,0.02863
1141,-6200.4,715.8,0.03331,0.91678,0.4917,0.05886
1142,-6280.84,954.45,0.01088,0.9215,0.47163,0.03021
1143,-6354.04,895.55,-0.01444,1.00306,0.48709,0.01946
1144,-6140.78,845.13,-0.02034,0.94125,0.45028,0.0152
1145,-6181.25,791.64,-0.01422,0.99463,0.4831,0.01315
1146,-6283.29,805.46,-0.00769,0.97669,0.48065,0.00192
1147,-6267.59,708.55,-0.00625,0.97806,0.48278,0.01124
1148,-6153.95,859.48,-0.00168,0.90867,0.45265,0.00795
1149,-6208.75,770.79,-0.00336,0.95371,0.4735,0.00714
1150,-6415.6,975.88,-0.00321,0.95416,0.47387,0.00398
1151,-6063.46,612.4,-0.00669,0.97341,0.48001,0.00864
1152,-6366.83,863.73,-0.00955,0.92802,0.45446,0.00243
1153,-6224.82,666.5,0.00152,0.99842,0.50073,0.01404
1154,-6205.72,865.05,0.01014,0.90382,0.46205,0.04281
1155,-6226.59,848.67,0.03605,0.95251,0.5123,0.07816
1156,-6162.6,629.92,0.02747,0.98761,0.52127,0.07942
1157,-6347.92,779.4,0.04352,0.90847,0.49775,0.10144
1158,-6517.95,891.56,0.04393,1.02441,0.55614,0.12731
1159,-6492.12,958.12,0.0429,0.94732,0.51656,0.10269
1160,-6398.49,954.24,0.03686,0.96371,0.51871,0.09751
1161,-6587.18,1050.33,0.00441,0.98618,0.4975,0.08666
1162,-6419.46,749.9,0.03248,0.98941,0.52718,0.0779
1163,-6476.6,810.61,0.00587,1.00271,0.50722,0.08708
1164,-6348.6,884.93,0.02386,0.97136,0.50954,0.08828
1165,-6347.96,769.74,0.03211,0.99853,0.53138,0.06213
1166,-6280.17,852.95,-0.00016,0.97336,0.48652,0.01547
1167,-6256.58,773.75,0.00061,0.98677,0.494,0.01812
1168,-6227.99,665.92,0.00792,0.95323,0.48454,0.01379
1169,-6334.53,765.94,0.01288,0.97031,0.49803,0.03677
1170,-6301.59,750.75,0.00264,0.99585,0.50056,0.01912
1171,-6445.35,819.02,-0.00585,0.98501,0.48665,0.00758
1172,-6449.94,916.92,-0.00766,1.00418,0.49443,0.01814
1173,-6448.77,930.51,0.0236,0.95296,0.50007,0.03493
1174,-6430.49,849.2,0.00617,0.94878,0.48057,0.02983
1175,-6387.11,902.39,0.00649,0.98313,0.49805,0.01675
1176,-6352.23,982.73,-0.00173,0.9679,0.48222,0.01019
1177,-6448.74,876.11,-0.00844,1.00714,0.49513,0.01119
1178,-6232.88,746.62,0.02897,0.97984,0.51889,0.03517
1179,-6540.88,888.06,0.02878,1.00515,0.53135,0.03095
1180,-6310.71,825.8,0.01788,0.99187,0.51381,0.03131
1181,-6278.46,774.7,0.01594,0.97993,0.50591,0.03078
1182,-6271.38,871.57,0.03462,0.9662,0.51772,0.07297
1183,-6193.77,751.37,0.08425,0.95024,0.55937,0.107
1184,-6389.8,844.98,0.00514,0.98298,0.49663,0.0351
1185,-6246.36,746.92,-0.00652,0.96533,0.47615,0.00956
1186,-6115.86,676.61,0.00215,0.95022,0.47726,0.00749
1187,-6118.92,692.52,-0.00316,0.96446,0.47907,0.01314
1188,-6115.41,629.62,0.01359,0.97772,0.50245,0.01484
1189,-6091.01,671.07,0.00265,0.94705,0.47618,0.0108
1190,-6015.9,617.97,-0.01205,0.94348,0.45969,0.01514
1191,-6157.27,799.79,-0.00622,0.98437,0.48597,0.00819
1192,-6142.9,620.19,-0.00457,0.94928,0.47006,0.00176
1193,-6079.88,652.94,-0.00042,0.9216,0.46038,0.0108
1194,-6115.1,622.4,0.00926,0.97566,0.49709,0.00781
1195,-6164.01,722.27,0.02126,0.93269,0.4876,0.02838
1196,-6269.0,816.33,-0.00013,1.01487,0.5073,0.01775
1197,-6056.03,707.92,0.06131,0.93352,0.52807,0.03578
1198,-6150.64,672.1,0.00631,0.97536,0.49399,0.02749
1199,-6210.44,833.27,0.02865,0.9644,0.51085,0.0657
1200,-6045.58,570.99,0.03096,0.96736,0.51464,0.03802
1201,-6239.09,741.66,1e-05,0.93538,0.4677,0.09962
1202,-6336.12,848.27,0.00627,0.97382,0.49317,0.03987
1203,-6453.43,731.0,0.02914,0.96976,0.51402,0.07231
1204,-6410.6,935.87,0.00914,0.99909,0.50869,0.06612
1205,-6604.05,1123.69,0.00475,0.97718,0.49334,0.0459
1206,-6400.27,859.7,0.01723,0.95054,0.4925,0.03612
1207,-6417.74,814.6,-0.01092,1.01579,0.49698,0.00857
1208,-6477.48,1062.14,-0.00392,0.94825,0.47021,0.00887
1209,-6367.0,1020.67,-0.00875,0.97769,0.4801,0.00206
1210,-6185.97,664.68,-0.00667,0.98598,0.48632,0.01484
1211,-6298.8,775.75,0.01446,0.97648,0.5027,0.03011
1212,-6204.59,672.74,0.00744,0.95362,0.48425,0.00769
1213,-6310.67,804.17,-0.00841,0.98035,0.48177,0.00694
1214,-6169.43,672.95,0.00717,0.94512,0.47973,0.01516
1215,-6283.11,626.68,-0.00715,0.94978,0.46774,0.00651
1216,-6290.67,639.59,-0.01035,0.96269,0.47099,0.00918
1217,-6205.73,784.13,-0.00303,0.9775,0.48572,0.0103
1218,-6316.51,831.71,0.00545,0.95698,0.48394,0.03265
1219,-6427.34,772.95,0.0098,0.93367,0.47663,0.05307
1220,-6268.98,835.06,0.00996,0.98625,0.50309,0.03124
1221,-6236.6,698.84,0.00193,0.97019,0.48702,0.0258
1222,-6318.97,815.49,0.00099,0.99304,0.49751,0.0327
1223,-6328.72,824.28,0.03943,0.96384,0.52136,0.07008
1224,-6355.08,907.1,-0.01584,1.01779,0.49306,0.00477
1225,-6142.94,601.03,-0.00205,0.97679,0.48634,0.00241
1226,-6226.6,726.76,-0.00283,0.94014,0.46724,0.00177
1227,-6177.91,645.52,0.0003,0.97284,0.48672,0.0095
1228,-6203.3,644.68,0.01768,1.00494,0.52015,0.02032
1229,-6207.9,654.07,0.01173,0.99537,0.50941,0.02759
1230,-6067.0,637.52,0.07487,0.96225,0.55599,0.08692
1231,-6036.82,689.78,0.00412,0.96697,0.48761,0.0205
1232,-6174.25,714.55,0.02198,0.95451,0.49923,0.0617
1233,-6117.88,737.39,-0.01203,0.95395,0.46494,0.01178
1234,-6116.33,631.93,0.01228,0.96324,0.4939,0.01737
1235,-6091.78,690.26,-0.00636,0.95619,0.47174,0.00293
1236,-6259.23,800.52,0.00653,1.03128,0.52217,0.01602
1237,-6096.64,570.38,0.00453,0.9564,0.48273,0.0122
1238,-6090.86,530.43,0.00526,0.96814,0.48933,0.01704
1239,-6151.34,692.67,-0.00549,0.99766,0.49334,0.01232
1240,-6181.49,736.3,0.00505,0.91705,0.46358,0.02246
1241,-6176.84,705.67,0.00592,0.9328,0.47232,0.01347
1242,-6201.22,864.09,0.00884,0.98142,0.49954,0.02773
1243,-6179.31,583.28,0.00112,0.89474,0.44849,0.01187
1244,-6070.23,522.95,-0.0018,0.95152,0.47396,0.00412
1245,-6190.58,615.77,-0.00049,0.98058,0.4898,0.00393
1246,-6092.56,781.47,-0.00937,0.96518,0.47322,0.00194
1247,-6138.09,674.85,-0.00297,0.98727,0.49066,0.00954
1248,-6163.9,781.89,-0.00827,0.91223,0.44784,0.00122
1249,-6154.25,734.89,-0.00425,0.9879,0.4897,0.00374
1250,-6075.95,701.71,-0.00478,0.93917,0.4648,0.00502
1251,-6161.91,817.93,-0.00362,0.86951,0.43114,0.02509
1252,-6191.63,762.79,0.00338,0.94276,0.47476,0.01094
1253,-6185.94,678.06,-0.013,0.92331,0.44866,0.00641
1254,-6078.88,691.98,-0.00619,0.95016,0.46889,0.01224
1255,-6177.03,606.37,-0.00544,0.98692,0.48802,0.00291
1256,-6238.07,680.18,-0.00827,0.94812,0.46578,0.00178
1257,-6113.19,767.52,-0.00195,0.98319,0.48965,0.00644
1258,-6064.84,599.2,-0.00306,0.96944,0.48166,0.00543
1259,-6069.69,714.16,-0.01083,0.90583,0.44208,0.0087
1260,-6114.0,663.71,-0.01471,0.97938,0.47498,0.01451
1261,-6178.98,691.93,-0.00693,0.91548,0.45081,0.00385
1262,-6183.12,813.24,-0.01674,0.93805,0.45229,0.00691
1263,-6032.48,622.96,0.01922,0.96847,0.50345,0.01544
1264,-6099.09,647.44,-0.00161,0.94811,0.47244,0.01303
1265,-6075.39,657.09,-0.00623,0.97097,0.47925,0.00754
1266,-5998.29,523.97,-0.00159,0.97477,0.4858,0.00412
1267,-6071.56,635.7,0.00256,0.96662,0.48587,0.00469
1268,-6146.55,700.87,-0.003,0.9575,0.47575,0.00515
1269,-6110.9,676.0,-0.00496,0.9199,0.45499,0.00421
1270,-6168.6,719.47,-0.00646,0.93838,0.46274,0.00164
1271,-6192.28,734.42,-0.00755,0.94957,0.46723,0.00142
1272,-6196.48,662.85,0.00251,0.95863,0.48182,0.01127
1273,-6138.71,719.3,-0.00396,0.98291,0.48749,0.00513
1274,-6084.86,650.16,-0.00146,0.96302,0.48005,0.00307
1275,-6072.71,571.54,0.00612,0.9938,0.50302,0.00675
1276,-6122.1,691.21,-0.00247,0.96393,0.4795,0.00177
1277,-6017.23,616.22,0.01107,0.96512,0.49363,0.01139
1278,-6022.23,691.77,-0.00614,0.94871,0.46822,0.00871
1279,-6022.89,683.05,-0.00339,0.91531,0.45426,0.00151
1280,-6037.81,640.23,0.00502,0.97289,0.49147,0.02096
1281,-6155.09,582.72,-0.00779,0.96825,0.47633,0.00888
1282,-6078.77,890.48,0.00254,0.96862,0.48685,0.00996
1283,-6030.6,620.45,0.00135,0.98219,0.49244,0.00411
1284,-5972.2,520.92,-0.00098,0.97628,0.48716,0.0115
1285,-6011.08,631.35,-0.00229,0.98147,0.48845,0.01385
1286,-6069.14,633.5,0.01711,0.97088,0.50255,0.01584
1287,-6061.68,675.52,-0.00024,0.98517,0.49235,0.01977
1288,-6123.63,832.84,0.01583,0.96186,0.49676,0.03039
1289,-6055.14,654.72,0.01548,0.97174,0.50135,0.0658
1290,-6278.17,767.36,0.02808,0.96933,0.51275,0.11013
1291,-6280.58,815.33,0.01304,0.95248,0.48928,0.17658
1292,-6336.59,807.4,0.03663,1.00222,0.53773,0.16712
1293,-6259.03,641.49,0.03635,0.95591,0.5143,0.14502
1294,-6121.92,727.75,0.03194,0.97012,0.517,0.04419
1295,-6292.64,937.99,-0.00089,1.03287,0.51554,0.06265
1296,-6196.58,699.01,0.03253,0.95461,0.50983,0.05329
1297,-6384.19,771.77,0.00058,0.94059,0.47088,0.07948
1298,-6235.62,778.49,0.01449,0.88809,0.45854,0.08255
1299,-6352.05,898.98,-0.00308,0.9378,0.46582,0.04942
1300,-6313.57,864.88,0.00733,1.00473,0.5097,0.04253
1301,-6359.87,898.93,0.0122,0.95337,0.48889,0.03672
1302,-6336.82,689.22,0.03154,0.95232,0.5077,0.03159
1303,-6105.01,638.78,0.0388,0.97063,0.52411,0.04727
1304,-6246.13,849.06,0.02481,0.95989,0.50475,0.0395
1305,-6088.1,672.4,0.03872,0.96352,0.52047,0.0717
1306,-6137.92,660.34,0.06368,0.97437,0.55086,0.19782
1307,-6115.72,548.84,0.03434,0.96636,0.51751,0.06085
1308,-6056.96,663.51,0.02353,0.98598,0.51652,0.06083
1309,-6140.3,681.04,0.00413,0.95778,0.48302,0.04448
1310,-6238.22,667.59,0.0275,0.95313,0.50406,0.03102
1311,-6183.19,736.36,0.01395,0.9589,0.4934,0.03257
1312,-6161.0,627.34,0.00262,0.95976,0.4825,0.01482
1313,-6215.3,685.1,-0.00037,0.90721,0.45324,0.00988
1314,-6207.02,634.76,-0.0057,0.95091,0.46976,0.00946
1315,-6092.5,673.72,-0.00104,0.96627,0.4821,0.01277
1316,-6161.4,636.07,0.00288,0.94908,0.47742,0.005
1317,-6077.15,653.38,0.0021,0.99843,0.50132,0.00895
1318,-6207.54,980.3,0.00269,1.00286,0.50412,0.01595
1319,-6010.2,673.25,-0.00134,0.98444,0.49088,0.00502
1320,-6222.7,753.79,-0.00724,0.94229,0.4639,0.0058
1321,-6141.15,638.31,0.02264,0.93838,0.49183,0.02761
1322,-6184.42,799.6,-0.00502,0.93321,0.46158,0.00683
1323,-6058.75,626.55,0.00671,0.97759,0.49551,0.0084
1324,-6194.01,899.24,-0.001,0.97908,0.48854,0.00654
1325,-6189.13,620.74,0.0011,0.93601,0.46911,0.01387
1326,-6079.07,623.65,0.00134,0.96619,0.48444,0.01584
1327,-6101.06,648.44,-0.0047,0.96807,0.47934,0.00465
1328,-6134.42,553.12,-0.00192,0.9733,0.48473,0.00348
1329,-6133.72,682.31,-0.00318,0.97727,0.48546,0.00683
1330,-6057.5,631.6,-0.00048,0.97058,0.48481,0.00421
1331,-6060.56,623.27,-0.00727,0.98867,0.48707,0.00144
1332,-6147.71,681.59,-0.01076,0.98757,0.48302,0.00616
1333,-6037.08,579.3,0.00123,0.95336,0.47791,0.00317
1334,-6036.92,710.8,0.00088,0.93849,0.47012,0.00836
1335,-6162.88,713.65,-0.00796,0.97156,0.47781,0.00721
1336,-6066.04,713.9,-0.00504,0.99071,0.49032,0.00288
1337,-6198.82,647.2,-0.00657,0.95126,0.46906,0.00515
1338,-6126.29,667.07,0.00626,0.97112,0.49182,0.01312
1339,-6087.77,639.69,-0.00416,0.96278,0.47723,0.00813
1340,-6102.71,665.98,-0.00322,0.96349,0.47852,0.00392
1341,-6029.89,711.53,-0.00898,0.92882,0.45543,0.00451
1342,-6082.52,686.03,0.00599,0.97901,0.4955,0.0132
1343,-6079.74,747.01,-0.01009,0.93896,0.45939,0.0099
1344,-6128.48,737.92,-0.00864,0.9835,0.48312,0.00845
1345,-6065.07,597.01,0.00967,0.98256,0.50094,0.01146
1346,-6130.63,722.72,0.00565,0.98352,0.49741,0.02043
1347,-6202.93,555.17,-0.00786,0.97159,0.47794,0.00259
1348,-6083.61,596.45,-0.01186,0.99507,0.48568,0.00606
1349,-6021.62,573.11,-0.00158,0.94629,0.47157,0.00802
1350,-6149.46,610.02,-0.00095,0.94368,0.47089,0.00255
1351,-6067.31,639.53,-0.00681,0.95575,0.47107,0.00556
1352,-6094.59,666.64,-0.00759,0.95454,0.46968,0.00534
1353,-5984.74,585.08,0.02104,0.9613,0.50169,0.03743
1354,-5991.53,625.22,-0.00568,0.99049,0.48956,0.00356
1355,-5945.6,570.89,0.00482,0.95187,0.48076,0.00644
1356,-6066.18,670.49,-0.01098,0.97794,0.478,0.00166
1357,-6069.02,538.94,-0.0057,0.95082,0.46971,0.00291
1358,-5995.33,618.68,-0.00651,0.98878,0.48788,0.00526
1359,-5976.15,687.2,0.00857,0.96972,0.49343,0.00541
1360,-6030.52,568.48,0.02648,0.94916,0.50106,0.03771
1361,-6044.09,684.74,0.02201,0.9654,0.50472,0.01207
1362,-5977.37,750.73,-0.00723,0.95196,0.46875,0.01149
1363,-6022.53,607.53,-0.00576,0.97412,0.4813,0.00605
1364,-6117.72,575.23,0.00618,0.98554,0.49895,0.0081
1365,-6092.43,608.16,-0.00193,1.00474,0.50044,0.00808
1366,-6080.45,571.72,-0.00059,0.98814,0.49348,0.00433
1367,-5962.77,553.46,0.01273,0.98258,0.50402,0.01618
1368,-6089.06,609.63,-0.00094,0.99156,0.49484,0.01342
1369,-6015.26,732.19,0.01243,0.93733,0.4811,0.01446
1370,-6030.08,731.05,-0.00882,0.97076,0.47656,0.00598
1371,-5977.43,629.77,0.00246,0.95988,0.4824,0.00938
1372,-5981.05,581.25,0.00515,0.97477,0.49253,0.01021
1373,-5940.24,579.19,-0.00734,0.96461,0.47496,0.0069
1374,-6080.11,708.05,0.02483,0.97283,0.51125,0.02178
1375,-6022.49,522.85,-0.00918,0.97714,0.47939,0.00552
1376,-6221.27,753.52,0.00254,0.9432,0.47413,0.00378
1377,-6071.81,603.04,-0.00838,0.96874,0.47599,0.00268
1378,-6043.25,602.16,0.00753,0.95998,0.48751,0.01613
1379,-6056.9,730.55,-0.00285,0.95506,0.47468,0.00162
1380,-5978.12,632.07,-0.00581,0.95328,0.47083,0.00173
1381,-5991.97,617.09,-0.00375,0.96784,0.48017,0.00085
1382,-5972.52,646.23,-0.00415,0.9668,0.47925,0.0006
1383,-5997.6,596.15,-0.00643,0.98026,0.4837,0.00177
1384,-5983.5,604.49,-0.00363,0.97181,0.48228,0.00105
1385,-6149.64,642.41,-0.00282,0.96667,0.48051,0.00139
1386,-5915.41,595.95,-0.00802,0.96894,0.47645,0.00752
1387,-5962.88,619.22,0.01786,0.95438,0.49505,0.01926
1388,-5864.86,506.27,0.01238,0.9694,0.49708,0.01688
1389,-5992.99,540.21,0.00415,0.9932,0.50075,0.01362
1390,-5967.8,536.14,-0.00564,0.95055,0.46964,0.00161
1391,-6084.77,605.42,0.0059,0.97509,0.49345,0.01104
1392,-5975.6,602.94,-0.00707,0.96419,0.47502,0.00259
1393,-5950.23,662.49,-0.00554,0.97061,0.47977,0.00458
1394,-5944.4,574.7,-0.00239,0.96884,0.48203,0.00458
1395,-6025.15,655.72,0.00028,0.97902,0.48979,0.00299
1396,-6039.83,642.52,-0.00514,0.97424,0.48197,0.00092
1397,-5971.18,672.66,0.00363,0.95504,0.48115,0.00178
1398,-6045.76,662.03,-0.00361,0.97329,0.48304,0.00229
1399,-6026.46,603.12,-0.00748,0.96405,0.47455,0.0021
1400,-5950.85,622.48,0.00386,0.96388,0.48581,0.00648
1401,-6006.77,606.43,0.0058,0.98341,0.4975,0.00947
1402,-5908.61,637.16,0.00724,0.97542,0.49494,0.02159
1403,-5996.17,607.62,0.00185,0.96457,0.48414,0.01681
1404,-6016.55,645.71,-0.00275,0.98,0.48725,0.01057
1405,-5958.42,576.63,0.0068,0.98015,0.49688,0.01945
1406,-5988.01,660.0,0.00212,0.97558,0.48991,0.0131
1407,-6079.57,658.82,0.00161,0.96689,0.48506,0.01034
1408,-6032.84,654.09,0.01332,0.96211,0.49437,0.0086
1409,-6100.17,720.36,-0.00453,0.99311,0.49202,0.02798
1410,-6000.46,624.76,0.00431,0.96768,0.48814,0.0092
1411,-5979.03,583.83,-0.0005,0.98025,0.48962,0.00351
1412,-5989.03,685.94,0.01657,0.96582,0.49948,0.01629
1413,-5908.31,603.03,-0.00158,0.96252,0.47968,0.00225
1414,-6023.93,541.59,-0.00467,0.96943,0.48005,0.0019
1415,-6056.98,629.76,0.00694,0.98379,0.49883,0.00877
1416,-5962.38,582.36,-0.00941,0.97498,0.47808,0.01958
1417,-6043.42,595.04,-0.00292,0.97136,0.48277,0.0025
1418,-5999.77,713.91,-0.00429,0.96235,0.47688,0.00131
1419,-6100.1,647.29,-0.00844,0.95487,0.469,0.00479
1420,-5993.41,525.28,0.00077,0.9445,0.47302,0.00319
1421,-5934.98,478.34,0.00497,0.96136,0.48565,0.00376
1422,-6002.96,704.26,0.00484,0.96398,0.48683,0.01828
1423,-6050.81,839.05,0.00345,0.95334,0.48013,0.01425
1424,-5984.22,619.91,-0.00279,0.9995,0.49696,0.00982
1425,-5942.55,630.73,0.00053,0.96822,0.48465,0.01245
1426,-6007.17,548.63,0.0028,0.94516,0.47538,0.00565
1427,-5956.17,599.12,0.0067,0.98658,0.49999,0.00714
1428,-6051.65,705.7,-0.00231,0.96696,0.48117,0.0027
1429,-6139.32,677.27,0.01158,0.98532,0.50424,0.02021
1430,-5969.13,696.42,0.00918,0.98493,0.50165,0.02561
1431,-5938.06,578.94,0.00998,0.98138,0.50067,0.02474
1432,-5993.54,514.87,0.00705,0.98088,0.49749,0.00748
1433,-5980.09,532.93,-0.00746,0.94519,0.46513,0.00571
1434,-5978.37,601.51,-0.00798,0.96604,0.47504,0.00478
1435,-5873.27,544.32,0.00339,0.9666,0.48669,0.01008
1436,-6077.42,693.82,0.00777,0.97407,0.49481,0.00887
1437,-5956.37,591.02,0.00222,0.96444,0.48444,0.01092
1438,-6147.28,615.34,-0.00172,0.93623,0.4664,0.03309
1439,-6072.27,563.83,0.02345,0.92989,0.4884,0.04793
1440,-6048.21,621.55,0.00536,0.90909,0.4599,0.02709
1441,-6059.89,601.74,0.0259,0.99254,0.52217,0.03543
1442,-6114.37,705.08,0.00307,0.88814,0.44714,0.02996
1443,-6033.08,688.83,0.01456,0.96657,0.49784,0.03087
1444,-6004.73,572.93,0.0157,0.96074,0.49607,0.02395
1445,-6176.4,822.15,-0.00455,0.97966,0.48528,0.02061
1446,-6165.98,769.21,-0.01452,0.95273,0.46185,0.02444
1447,-6090.66,777.06,-0.00697,1.01149,0.49877,0.01042
1448,-6030.53,605.65,-0.00564,0.97833,0.48352,0.0056
1449,-6177.7,831.44,-0.00895,0.96078,0.47144,0.01154
1450,-6018.81,633.25,-0.00186,0.97227,0.48428,0.00688
1451,-6076.88,601.38,0.00313,0.97316,0.48971,0.00953
1452,-6154.12,708.72,0.03215,0.96673,0.51552,0.0344
1453,-6169.35,722.03,0.00595,0.91157,0.46173,0.02188
1454,-5985.72,601.51,-0.00137,0.98496,0.49111,0.00707
1455,-5972.12,669.56,0.00209,0.95487,0.47953,0.01331
1456,-6029.58,587.96,0.00355,0.97198,0.48954,0.00759
1457,-5972.21,543.46,0.00719,0.97021,0.4923,0.01541
1458,-6099.61,611.84,0.01697,0.9668,0.50037,0.02755
1459,-6011.79,604.18,0.00545,0.96441,0.48765,0.0069
1460,-6039.71,728.65,0.01201,0.98288,0.50345,0.00802
1461,-5950.91,572.17,-0.00348,0.96337,0.4782,0.01037
1462,-6008.92,618.82,0.01019,0.95698,0.48868,0.00689
1463,-5875.47,624.3,0.02071,0.95268,0.49705,0.01928
1464,-5920.98,507.31,0.01264,0.96011,0.4927,0.02246
1465,-6031.0,668.4,0.00887,0.9789,0.49832,0.0113
1466,-6043.1,557.9,0.00082,0.96929,0.48547,0.00547
1467,-5996.42,662.39,-0.00364,0.95461,0.47367,0.00863
1468,-5947.32,578.49,-0.00398,0.98403,0.48803,0.0095
1469,-5969.46,530.48,-0.00288,0.96736,0.4808,0.00305
1470,-6017.5,561.86,-0.00259,0.98775,0.49128,0.0014
1471,-5972.54,497.45,0.01328,0.9683,0.49743,0.01917
1472,-5949.83,617.02,0.00046,0.9604,0.48066,0.00644
1473,-5974.02,521.82,-0.00886,0.97655,0.47942,0.00298
1474,-5954.41,520.22,-0.00514,0.9647,0.47721,0.00166
1475,-6042.37,653.02,0.01092,0.96281,0.49233,0.01338
1476,-6124.2,614.62,-0.00467,0.97763,0.48415,0.00841
1477,-6037.41,589.36,0.00045,0.97057,0.48573,0.00847
1478,-5968.11,548.38,-0.00828,0.95727,0.47036,0.00183
1479,-5872.19,515.67,-0.00513,0.95598,0.47286,0.00138
1480,-5968.44,528.86,-0.01163,0.97272,0.47473,0.00248
1481,-6011.54,503.49,0.00078,0.95595,0.47876,0.00801
1482,-6059.94,566.99,-0.00701,0.9659,0.47595,0.00104
1483,-5984.12,638.17,0.00291,0.98043,0.49312,0.00578
1484,-6057.59,542.23,-0.00743,0.98689,0.48601,0.00503
1485,-5945.99,495.87,-0.0031,0.9842,0.48901,0.00649
1486,-6018.48,686.27,-0.00037,0.97992,0.48959,0.00165
1487,-5913.64,641.13,-0.00336,0.9817,0.48749,0.00046
1488,-6027.34,638.96,0.00424,0.94207,0.47527,0.00124
1489,-5957.29,531.58,0.00137,0.97854,0.49063,0.00248
1490,-5926.49,559.14,-0.00027,0.97922,0.48934,0.00454
1491,-5896.21,562.43,-0.00632,0.96793,0.47764,0.00153
1492,-5872.75,566.18,-0.00309,0.96857,0.48119,0.00247
1493,-5947.8,571.2,0.00331,0.97615,0.49139,0.00481
1494,-5988.7,574.25,-0.00714,0.96638,0.47605,0.00135
1495,-5972.19,557.88,-0.00101,0.97228,0.48513,0.00963
1496,-5899.94,544.27,0.00063,0.97329,0.48728,0.00849
1497,-5880.07,571.15,-0.00933,0.99267,0.487,0.00374
1498,-6072.43,683.4,0.01007,0.96484,0.49248,0.02595
1499,-6013.28,558.13,-0.00647,0.98176,0.48441,0.01474
1500,-5915.34,603.27,-0.0017,0.96501,0.4808,0.00248
1501,-6035.69,617.64,-0.00292,0.96711,0.48063,0.00056
1502,-5988.11,540.62,0.0062,0.96234,0.48737,0.00574
1503,-5964.49,603.67,-0.00768,0.97357,0.4791,0.00232
1504,-5818.97,531.14,-0.00651,0.95205,0.46952,0.00326
1505,-5922.93,723.35,-0.00184,0.98164,0.48898,0.00619
1506,-6016.45,543.2,0.00494,0.96336,0.48662,0.01765
1507,-5876.16,629.53,0.00097,0.98101,0.49147,0.00333
1508,-5877.58,529.97,0.01612,0.95561,0.49392,0.01429
1509,-5986.04,646.18,-0.00334,0.96603,0.47967,0.00069
1510,-5877.29,536.13,-0.00636,0.97452,0.48091,0.0041
1511,-5994.91,537.29,-0.00531,0.94659,0.46798,0.00886
1512,-5960.74,632.86,-0.00413,1.00151,0.49662,0.00105
1513,-5893.16,658.13,0.00647,0.9579,0.48542,0.00702
1514,-5753.72,626.03,-0.00603,0.97369,0.48081,0.00095
1515,-5927.79,580.39,0.00677,0.9816,0.49757,0.00801
1516,-5961.14,610.26,-0.00024,0.97411,0.48681,0.00444
1517,-5834.93,567.77,0.0057,0.98061,0.49601,0.01118
1518,-5888.32,497.2,0.00826,0.97271,0.49461,0.00819
1519,-5949.25,558.13,0.00357,0.98119,0.49417,0.02432
1520,-5997.59,725.95,-0.00437,0.97998,0.48562,0.0065
1521,-5869.77,610.12,-0.01061,0.96939,0.47408,0.00491
1522,-5928.44,548.79,0.00441,0.988,0.49841,0.01188
1523,-5967.44,554.99,-0.01217,0.96568,0.47067,0.0028
1524,-5956.01,516.23,-0.00374,0.96948,0.481,0.00245
1525,-5965.89,544.84,-0.00321,0.96174,0.47765,0.0014
1526,-5969.97,558.03,0.01305,0.9916,0.50885,0.00821
1527,-5936.36,633.29,0.00608,0.96514,0.48864,0.00575
1528,-5861.21,613.58,0.0079,0.96195,0.48888,0.0126
1529,-5854.63,647.87,0.03253,0.96869,0.51688,0.07719
1530,-5898.41,585.31,0.02929,0.96499,0.51179,0.05512
1531,-5897.63,699.36,0.00926,0.95185,0.48518,0.02791
1532,-6061.47,659.02,0.01286,0.96044,0.49308,0.02774
1533,-5890.95,516.24,0.0398,0.96519,0.5224,0.04133
1534,-5844.76,639.67,0.02418,0.98509,0.51672,0.0408
1535,-6050.78,826.07,-0.00438,0.97709,0.48417,0.00689
1536,-5951.11,607.94,0.00916,0.94766,0.48299,0.00936
1537,-5916.57,543.88,0.0024,0.96144,0.48312,0.02731
1538,-5808.23,574.46,-0.00021,0.97317,0.48637,0.00207
1539,-5905.71,517.55,0.02601,0.96929,0.51066,0.02704
1540,-5924.16,654.34,-0.0043,0.96488,0.47814,0.01303
1541,-5975.07,679.04,-6e-05,0.97686,0.48838,0.00247
1542,-5841.3,578.95,-0.00013,0.97115,0.48544,0.00321
1543,-5751.05,616.09,-0.00867,0.95141,0.46703,0.00217
1544,-5898.15,553.35,-0.00412,0.9724,0.48208,0.00321
1545,-5727.26,531.38,-0.00531,0.98495,0.48717,0.00172
1546,-6063.78,638.13,-0.00331,0.95946,0.47642,0.01898
1547,-5817.31,652.74,0.00138,0.98567,0.49421,0.00222
1548,-5849.31,637.77,-0.01187,0.96006,0.46816,0.00358
1549,-6018.01,633.34,-0.00289,0.99072,0.49247,0.00179
1550,-5868.34,560.31,-0.00623,0.96984,0.47869,0.01512
1551,-5857.4,519.65,0.00976,1.00257,0.51104,0.01217
1552,-5874.2,735.71,0.00116,0.95502,0.47867,0.00508
1553,-5783.92,621.39,0.01079,0.97191,0.49675,0.01145
1554,-5883.53,634.55,0.0057,0.99068,0.50104,0.01048
1555,-5950.62,695.29,0.02034,0.96295,0.50181,0.02056
1556,-5854.24,662.57,0.00486,0.92845,0.46909,0.00279
1557,-5842.88,567.54,-0.00034,0.95841,0.47887,0.00413
1558,-5794.11,558.42,-0.00274,0.97287,0.48369,0.00369
1559,-5928.27,575.36,-0.00398,0.95242,0.47223,0.0024
1560,-5776.88,575.83,0.00507,0.96464,0.4874,0.00494
1561,-5876.42,551.19,-0.00281,0.96272,0.47855,0.00106
1562,-5843.2,551.65,0.00239,0.96539,0.48508,0.00428
1563,-5872.56,548.69,0.00171,0.96429,0.48386,0.00133
1564,-5849.05,552.99,-0.00292,0.94698,0.47057,0.00361
1565,-5829.14,558.35,-0.0012,0.9892,0.4934,0.00047
1566,-5849.4,629.4,-0.00091,0.96576,0.48196,0.00538
1567,-5773.08,674.91,-0.00684,0.97283,0.47958,0.01557
1568,-5884.67,657.52,-0.00111,0.98678,0.49228,0.00199
1569,-5832.21,666.51,0.00215,0.94669,0.47549,0.00446
1570,-5885.13,606.48,0.01476,0.97942,0.50447,0.02332
1571,-5921.66,594.95,-0.00912,0.98147,0.48162,0.01074
1572,-5777.34,547.42,-0.00536,0.99513,0.4922,0.00589
1573,-5774.25,628.75,0.00057,0.97236,0.48675,0.00172
1574,-5839.66,570.75,-0.00232,0.97618,0.48577,0.00119
1575,-5890.71,597.61,-0.00142,0.97705,0.4871,0.00117
1576,-5852.3,607.01,-0.01165,0.95655,0.46663,0.0021
1577,-5914.38,561.86,0.0108,0.97774,0.49967,0.02211
1578,-5810.47,617.62,-0.0129,0.98148,0.47784,0.01132
1579,-5821.69,635.99,0.01581,0.96784,0.49973,0.01498
1580,-5913.12,615.8,-0.00885,0.97361,0.47796,0.00952
1581,-5907.17,558.4,0.00045,0.97727,0.48908,0.01815
1582,-5836.29,626.45,0.00164,0.97601,0.48965,0.00841
1583,-5731.69,619.65,-0.00294,0.99247,0.4933,0.01243
1584,-5848.8,609.71,0.01428,0.9826,0.50558,0.02971
1585,-5754.97,544.13,0.0065,0.9486,0.4808,0.03243
1586,-5851.07,647.28,-0.00208,0.98203,0.48893,0.00855
1587,-5749.65,513.87,0.01545,0.95216,0.49153,0.01085
1588,-5810.39,672.98,-0.00487,0.98235,0.48631,0.0138
1589,-5857.44,698.1,0.04068,0.94672,0.51405,0.08267
1590,-5761.53,661.15,0.01163,0.97093,0.4971,0.02216
1591,-5844.55,539.94,-0.00034,0.98836,0.49384,0.0117
1592,-5842.41,630.75,-0.00867,0.97573,0.47919,0.00693
1593,-5834.97,538.11,-0.00727,0.98719,0.48632,0.00495
1594,-5833.36,514.49,-0.00382,0.98396,0.48816,0.00442
1595,-5848.04,530.59,0.00826,0.9915,0.50401,0.00959
1596,-5767.01,651.66,-0.00622,0.97496,0.48127,0.00813
1597,-5974.24,573.12,-0.01373,0.96302,0.46778,0.00535
1598,-5842.61,562.74,-0.00559,0.97764,0.48323,0.00211
1599,-5924.18,649.94,-0.00336,0.98102,0.48715,0.0024
1600,-5884.99,647.23,0.00858,0.97343,0.4953,0.00506
1601,-5752.22,635.85,0.01145,0.97384,0.49837,0.01401
1602,-5768.38,595.79,0.00332,0.9538,0.48022,0.01478
1603,-5834.07,646.52,0.01297,0.976,0.50097,0.027
1604,-5758.65,577.14,0.02207,0.98478,0.51446,0.0141
1605,-5761.48,644.55,-0.0002,0.9526,0.4761,0.00647
1606,-5875.75,619.67,-0.00087,0.97867,0.48846,0.0035
1607,-5850.44,613.73,0.00963,0.94625,0.48276,0.02756
1608,-5934.42,653.41,-0.00308,0.98567,0.48976,0.00295
1609,-5807.43,620.44,0.01346,0.97158,0.49925,0.01599
1610,-5788.72,590.25,-0.00528,1.01111,0.50028,0.01311
1611,-5817.82,651.2,0.00558,0.97261,0.49189,0.01432
1612,-5787.7,562.23,-0.00265,0.97598,0.48534,0.00365
1613,-5699.23,631.47,-0.00312,0.94809,0.47093,0.00586
1614,-5798.13,549.09,-0.00578,1.00883,0.49864,0.00175
1615,-5888.3,587.22,-0.00542,0.94441,0.46678,0.0012
1616,-5822.88,594.85,-0.00122,0.95451,0.47604,0.00089
1617,-5825.86,657.02,0.00619,0.99425,0.50332,0.00496
1618,-5781.43,588.61,0.00353,0.96458,0.48582,0.00524
1619,-5694.59,587.4,0.02617,0.98546,0.5189,0.0308
1620,-5773.13,586.98,0.02661,0.97002,0.51162,0.02995
1621,-5599.07,582.08,0.0186,0.97616,0.50668,0.01568
1622,-5679.61,601.03,-0.00535,0.98152,0.48541,0.00473
1623,-5756.82,566.56,0.01025,0.97085,0.49567,0.0105
1624,-5744.63,625.71,0.00194,0.97267,0.48827,0.01015
1625,-5801.09,626.01,0.0025,0.97882,0.49191,0.01322
1626,-5777.94,658.18,0.00701,0.98713,0.50058,0.0133
1627,-5748.28,697.45,-0.00065,0.97139,0.48505,0.00092
1628,-5825.16,661.4,-0.00299,0.97335,0.48368,0.00051
1629,-5756.06,633.96,0.00119,0.98573,0.49406,0.00543
1630,-5790.6,574.31,0.00939,0.95951,0.48914,0.03912
1631,-5742.7,535.96,-0.00307,0.96484,0.47935,0.00137
1632,-5676.71,588.7,0.0064,0.98362,0.49821,0.01152
1633,-5807.1,613.27,0.0047,0.96652,0.48796,0.00436
1634,-5799.83,673.95,-0.00485,0.99059,0.49045,0.00514
1635,-5860.59,607.64,-0.00404,0.98333,0.48762,0.00577
1636,-5777.85,641.01,0.00699,0.98172,0.49785,0.00891
1637,-5852.31,607.62,-0.00188,0.96496,0.4806,0.00427
1638,-5846.88,683.24,-0.01011,0.97885,0.47931,0.00533
1639,-5747.93,593.41,-0.001,0.97604,0.48702,0.00654
1640,-5853.32,588.28,-0.00894,0.98281,0.48246,0.00333
1641,-5795.75,595.7,-0.0016,0.97634,0.48657,0.00351
1642,-5900.85,519.92,-0.0011,0.97127,0.48454,0.00601
1643,-5774.4,590.1,-0.00107,0.96915,0.4835,0.00815
1644,-5748.43,552.14,0.01302,0.98561,0.50583,0.01928
1645,-5822.48,673.11,0.02416,1.00059,0.52446,0.02734
1646,-5725.78,557.78,-0.00058,0.9756,0.48722,0.0056
1647,-5811.36,655.93,0.02058,0.99291,0.51703,0.02521
1648,-5788.79,625.21,0.01335,0.98826,0.50748,0.02064
1649,-5664.19,651.56,-0.00053,0.9945,0.49672,0.01168
1650,-5963.19,716.44,0.02682,0.97377,0.51371,0.03697
1651,-5684.07,604.96,0.01188,0.9922,0.50798,0.02707
1652,-5672.74,580.39,0.01044,0.9741,0.49749,0.0102
1653,-5756.15,630.26,0.02132,0.97977,0.51121,0.02749
1654,-5693.83,588.79,0.02541,0.97607,0.51345,0.02668
1655,-5698.42,581.99,0.00934,0.96672,0.49269,0.02901
1656,-5751.47,669.05,0.06136,0.93558,0.52915,0.05173
1657,-5792.86,574.5,0.01044,0.95565,0.48826,0.06164
1658,-5791.79,615.95,0.02892,0.98394,0.52088,0.05554
1659,-5757.5,725.03,0.01461,0.96081,0.49501,0.03435
1660,-5795.85,646.56,0.02583,0.97828,0.51497,0.04064
1661,-5860.3,622.32,0.00988,0.9677,0.49373,0.03302
1662,-5816.26,648.87,-0.00329,0.97226,0.48284,0.0023
1663,-5813.18,636.35,0.00262,0.95935,0.4823,0.00534
1664,-5809.18,609.65,-0.0012,0.93698,0.46729,0.00077
1665,-5735.75,623.26,0.00214,0.95175,0.47801,0.00139
1666,-5908.39,665.02,0.00214,0.95051,0.47739,0.01802
1667,-5851.6,671.57,0.00014,0.96712,0.4837,0.00053
1668,-5771.27,601.7,0.00444,0.97328,0.49108,0.00424
1669,-5683.88,659.67,-0.00194,0.96031,0.47822,0.00907
1670,-5726.44,661.07,-0.00962,0.93032,0.45554,0.00565
1671,-5729.48,786.56,0.00183,0.97267,0.48817,0.0029
1672,-5683.78,634.79,0.00014,0.96327,0.48178,0.01068
1673,-5771.65,629.03,0.01063,0.98054,0.5009,0.02514
1674,-5669.65,662.03,0.00196,0.98315,0.49353,0.00707
1675,-5695.89,574.13,0.00103,0.96487,0.48346,0.00651
1676,-5635.13,571.73,0.0118,0.98267,0.50314,0.01106
1677,-5717.03,636.48,0.00471,0.96363,0.48653,0.02114
1678,-5624.95,620.13,0.00207,0.97506,0.4896,0.01704
1679,-5706.07,540.02,0.00137,0.96424,0.4835,0.00728
1680,-5597.28,629.43,-0.00192,0.99575,0.49595,0.00655
1681,-5711.72,614.49,0.00024,0.9894,0.49494,0.00303
1682,-5641.95,643.2,-0.00088,0.98595,0.4921,0.00327
1683,-5624.63,605.18,-0.00261,0.9764,0.48559,0.0035
1684,-5643.49,619.31,-0.00221,0.968,0.48179,0.00158
1685,-5754.69,571.92,-0.00318,0.97125,0.48245,0.00669
1686,-5685.65,681.99,-0.00765,0.96546,0.47508,0.0017
1687,-5659.04,627.97,-0.00395,0.98125,0.48668,0.00251
1688,-5668.17,652.75,0.00384,0.98232,0.495,0.0033
1689,-5725.39,640.21,-0.00367,0.95898,0.47582,0.00178
1690,-5633.35,671.71,-0.0041,0.98206,0.48693,0.0042
1691,-5634.92,562.54,-0.00223,0.95394,0.47473,0.00492
1692,-5640.84,640.13,0.01506,0.95932,0.49472,0.01209
1693,-5607.95,616.43,-5e-05,0.9696,0.48475,0.00332
1694,-5755.0,576.19,0.01895,0.97405,0.50597,0.01436
1695,-5638.71,603.72,0.00164,0.95601,0.47965,0.00094
1696,-5685.52,693.48,-0.00089,0.9676,0.48291,0.00429
1697,-5702.45,619.07,-0.00375,0.94742,0.46997,0.01161
1698,-5655.35,717.88,0.00731,0.97721,0.49591,0.03181
1699,-5543.9,583.65,0.00398,0.96778,0.48787,0.01437
1700,-5795.04,613.46,-0.00322,0.96887,0.48122,0.00108
1701,-5658.35,554.06,0.00069,0.96546,0.48342,0.00156
1702,-5693.77,875.16,-0.00057,0.91863,0.45875,0.00058
1703,-5608.51,624.96,0.00104,0.95512,0.4786,0.00798
1704,-5782.16,646.4,0.00234,0.95942,0.48205,0.00523
1705,-5638.51,651.68,-0.00241,0.9663,0.48074,0.00692
1706,-5620.28,666.69,-0.00392,0.97225,0.48221,0.014
1707,-5674.81,612.63,0.02342,0.98742,0.51714,0.02289
1708,-5759.5,682.07,0.01227,0.981,0.50277,0.02998
1709,-5769.57,622.59,0.02196,0.96801,0.50597,0.03985
1710,-5690.86,712.52,0.00817,0.97971,0.49803,0.0251
1711,-5816.2,630.71,0.00228,0.97569,0.49012,0.0146
1712,-5715.66,585.26,0.00387,0.96276,0.48525,0.01801
1713,-5776.27,580.22,-0.00354,0.97243,0.48268,0.00557
1714,-5691.77,629.67,0.01164,0.97312,0.4982,0.01101
1715,-5759.0,728.7,0.00028,0.96457,0.48256,0.00644
1716,-5712.69,650.39,0.00295,0.98676,0.49633,0.00319
1717,-5727.7,656.75,-0.00479,0.96097,0.47569,0.00539
1718,-5716.34,646.36,-0.0007,0.97883,0.48872,0.00589
1719,-5637.49,678.76,-0.0016,0.98067,0.48873,0.00461
1720,-5755.01,669.98,-0.00068,0.97684,0.48774,0.00754
1721,-5672.97,618.89,-0.00696,0.9901,0.48809,0.01004
1722,-5655.26,597.68,-0.00071,0.97335,0.48596,0.00149
1723,-5692.7,600.92,0.00576,0.98603,0.49877,0.00267
1724,-5578.6,577.3,0.01806,0.96826,0.50219,0.02012
1725,-5665.55,630.35,-0.00644,0.97601,0.48156,0.00738
1726,-5742.06,705.58,0.00687,0.97914,0.49644,0.02604
1727,-5791.56,687.67,0.00092,0.9609,0.48137,0.01211
1728,-5708.19,644.55,0.00445,0.97435,0.49162,0.00865
1729,-5579.99,631.62,-0.00545,0.9676,0.47835,0.00212
1730,-5685.62,624.82,-0.00461,0.97651,0.48364,0.01669
1731,-5713.2,606.68,-0.00423,0.95789,0.47471,0.00165
1732,-5682.47,589.5,-0.00272,0.96883,0.48169,0.00055
1733,-5683.86,622.43,-0.00148,0.99923,0.49813,0.00096
1734,-5552.76,598.38,0.00401,0.97757,0.49279,0.00657
1735,-5645.6,620.95,0.00358,0.98606,0.49661,0.0101
1736,-5688.54,621.53,-0.00831,0.96139,0.47239,0.00771
1737,-5615.19,656.8,0.00423,0.99076,0.49961,0.00625
1738,-5574.99,616.55,-0.00043,0.99133,0.49524,0.00158
1739,-5637.63,677.65,0.00634,0.98275,0.49771,0.00552
1740,-5690.88,573.63,0.00525,0.97531,0.49291,0.00567
1741,-5563.39,580.93,0.00985,0.95787,0.48879,0.02597
1742,-5679.18,586.22,0.00837,0.97188,0.4943,0.00569
1743,-5552.3,638.66,5e-05,0.96466,0.48238,0.00097
1744,-5548.63,609.56,-0.00081,0.97732,0.48785,0.00102
1745,-5478.4,623.52,0.01413,0.96868,0.49847,0.01012
1746,-5499.9,608.92,0.00326,0.96272,0.48462,0.00275
1747,-5617.72,671.05,0.00888,0.95658,0.48717,0.0073
1748,-5640.16,646.13,0.00312,0.9628,0.48452,0.0087
1749,-5550.93,587.1,0.00221,0.95084,0.47763,0.00648
1750,-5590.9,585.96,-0.00271,0.93386,0.46422,0.00338
1751,-5585.57,578.85,-0.00244,0.96047,0.4778,0.0007
1752,-5542.49,640.64,0.00111,0.95637,0.47929,0.00122
1753,-5649.84,620.56,0.00289,0.97962,0.4927,0.00297
1754,-5588.79,651.74,-0.00294,0.96589,0.48001,0.00295
1755,-5618.22,646.87,0.00188,0.96628,0.48502,0.00814
1756,-5655.22,649.48,-0.00035,0.94796,0.47363,0.00037
1757,-5613.63,655.98,-0.00465,0.94148,0.46609,0.0009
1758,-5566.18,587.94,-0.00177,0.97106,0.48376,0.00577
1759,-5611.49,619.09,-0.00159,0.94396,0.47039,0.00383
1760,-5549.41,592.42,0.00988,0.96269,0.49123,0.00817
1761,-5624.31,691.72,-0.00144,0.97784,0.48748,0.01638
1762,-5553.17,637.71,0.0104,0.97392,0.49736,0.07165
1763,-5547.08,600.15,0.04423,0.98002,0.53424,0.08318
1764,-5641.2,603.14,0.01656,0.95026,0.49169,0.05192
1765,-5615.96,646.95,0.01531,0.9672,0.49891,0.0383
1766,-5699.22,681.22,-0.00415,0.97576,0.48373,0.02703
1767,-5600.85,695.53,0.026,0.9484,0.5002,0.03494
1768,-5685.42,554.26,-0.00298,0.98018,0.48711,0.01075
1769,-5651.78,553.9,-0.0065,0.98763,0.48731,0.00326
1770,-5524.32,579.82,0.01083,0.98033,0.50099,0.02342
1771,-5577.65,573.02,0.01507,0.97056,0.50035,0.02893
1772,-5570.63,586.96,0.01559,0.97251,0.50185,0.00963
1773,-5583.47,608.22,0.00162,0.96786,0.48555,0.01129
1774,-5665.9,633.83,0.00941,0.98983,0.50432,0.00567
1775,-5664.78,597.03,-0.00028,0.96558,0.48251,0.00461
1776,-5656.31,662.78,0.00907,0.99381,0.50598,0.02281
1777,-5498.79,556.21,0.00776,0.94972,0.48262,0.00542
1778,-5521.78,642.9,0.00071,0.98002,0.49072,0.00167
1779,-5617.55,660.1,0.0009,0.97988,0.49084,0.00822
1780,-5508.46,646.58,0.01933,0.96244,0.50055,0.00886
1781,-5606.25,593.95,0.02211,0.98197,0.51309,0.03264
1782,-5527.03,665.63,0.02072,1.00901,0.52523,0.05009
1783,-5429.8,596.43,0.03744,0.99705,0.53596,0.05093
1784,-5610.07,546.07,0.01896,0.99071,0.51431,0.03756
1785,-5617.09,576.82,0.05382,0.96525,0.53645,0.09922
1786,-5685.05,689.77,0.0418,0.97456,0.52908,0.11139
1787,-5651.99,662.26,0.03224,0.93744,0.50096,0.14093
1788,-5597.69,702.13,0.01301,0.97291,0.49946,0.09432
1789,-5540.68,652.12,-0.00421,0.9567,0.47414,0.02311
1790,-5589.84,672.87,-0.00223,0.96551,0.48052,0.01177
1791,-5546.76,667.02,0.00499,0.96029,0.48514,0.00471
1792,-5565.23,680.69,-0.00061,0.97118,0.48498,0.00307
1793,-5702.85,596.72,-0.00282,0.97797,0.48617,0.0029
1794,-5518.0,612.79,0.00183,0.97585,0.48976,0.00275
1795,-5570.6,654.38,0.00755,0.9572,0.48615,0.01551
1796,-5613.74,634.89,0.00697,0.95897,0.48645,0.01002
1797,-5585.16,680.03,-0.00047,0.96643,0.48275,0.00138
1798,-5497.23,651.45,0.00432,0.94394,0.47629,0.0094
1799,-5512.13,669.92,0.00081,0.94372,0.47267,0.00371
1800,-5549.76,609.56,-0.00258,0.95623,0.47554,0.00091
1801,-5587.85,715.26,0.01269,0.96941,0.49739,0.00731
1802,-5543.8,649.8,0.00916,0.9464,0.48236,0.01507
1803,-5527.64,628.09,0.00129,0.95167,0.47712,0.00243
1804,-5490.12,588.6,-0.00241,0.95904,0.47711,0.00549
1805,-5616.47,689.54,-0.00527,0.94489,0.46717,0.00695
1806,-5498.48,662.19,0.00173,0.96624,0.48485,0.0087
1807,-5704.73,696.92,0.00702,0.93286,0.47345,0.0036
1808,-5596.94,624.58,-0.00198,0.94178,0.46891,0.00265
1809,-5505.77,678.71,0.00119,0.96414,0.48327,0.00139
1810,-5504.53,589.46,-0.00239,0.93938,0.4673,0.00037
1811,-5439.1,685.07,-0.00263,0.94236,0.46855,0.00106
1812,-5560.17,584.28,0.00015,0.95418,0.47724,0.00347
1813,-5577.53,540.45,-0.00153,0.91947,0.45821,0.00124
1814,-5520.72,606.36,0.00099,0.937,0.46949,0.00634
1815,-5568.12,647.71,-0.00444,0.93733,0.46423,0.00195
1816,-5568.73,677.58,-0.00064,0.9566,0.47766,0.0015
1817,-5474.96,714.21,-0.00071,0.954,0.47629,0.00245
1818,-5469.3,670.99,-0.00631,0.97582,0.48161,0.00606
1819,-5529.41,597.78,0.00023,0.96324,0.48185,0.01028
1820,-5437.7,631.26,0.00267,0.95462,0.47998,0.00323
1821,-5459.17,669.97,0.00194,0.94287,0.47337,0.00702
1822,-5551.29,560.64,0.00039,0.97322,0.487,0.00246
1823,-5373.97,607.2,0.00059,0.97766,0.48942,0.00569
1824,-5476.95,622.07,-0.00541,0.95323,0.47121,0.00251
1825,-5547.77,630.38,-0.00202,0.94355,0.46975,0.01062
1826,-5469.53,611.12,0.00805,0.98124,0.49866,0.00763
1827,-5510.39,672.68,0.00414,0.97453,0.49141,0.00771
1828,-5498.09,614.95,0.02659,0.9669,0.51004,0.01854
1829,-5571.83,639.74,0.00391,0.97639,0.4921,0.00163
1830,-5432.76,597.29,0.00707,0.96413,0.48913,0.0157
1831,-5511.79,630.54,0.00534,0.99669,0.50368,0.00578
1832,-5475.19,640.15,0.00672,0.97739,0.49542,0.00736
1833,-5643.66,662.71,-5e-05,0.98825,0.49407,0.00344
1834,-5594.78,656.43,-0.00352,0.99025,0.4916,0.00109
1835,-5560.51,623.95,-7e-05,0.98887,0.49437,0.00378
1836,-5399.47,635.94,0.00131,0.97389,0.48825,0.00148
1837,-5473.08,650.19,-0.00334,0.9784,0.48586,0.00261
1838,-5541.68,613.43,0.00557,0.97912,0.49513,0.00448
1839,-5565.43,585.48,0.00277,0.96171,0.48363,0.00288
1840,-5506.88,554.73,0.00379,0.99434,0.50096,0.00265
1841,-5480.28,547.89,-0.003,0.97303,0.48352,0.0019
1842,-5448.01,586.85,-0.00302,0.9773,0.48563,0.0019
1843,-5413.38,616.68,0.00046,0.96572,0.48332,0.00033
1844,-5501.85,585.93,-0.00288,0.97266,0.48345,0.00049
1845,-5414.59,553.98,0.00328,0.98983,0.4982,0.0021
1846,-5524.84,596.05,0.00366,0.99031,0.49882,0.00321
1847,-5462.23,603.7,-0.00489,0.9632,0.47671,0.00189
1848,-5496.35,571.68,-0.00175,0.97523,0.48587,0.00206
1849,-5584.92,655.81,0.00406,0.98372,0.49592,0.00312
1850,-5569.44,600.15,-0.00307,0.97785,0.48586,0.0017
1851,-5509.05,797.96,-0.00135,0.97393,0.48562,0.00094
1852,-5477.65,602.9,-0.00361,0.96543,0.47911,0.00245
1853,-5423.07,604.73,0.00427,0.97671,0.49262,0.01766
1854,-5479.28,636.03,-0.00112,0.96066,0.47921,0.00099
1855,-5451.55,688.65,-0.00079,0.97208,0.48525,0.00138
1856,-5472.77,724.68,0.00198,0.93559,0.46977,0.00594
1857,-5513.32,592.2,-6e-05,0.94751,0.47369,0.00135
1858,-5438.94,625.82,0.0062,0.97323,0.49282,0.00364
1859,-5574.52,578.38,0.00054,0.97536,0.48822,0.00408
1860,-5465.16,620.21,-0.00427,0.99685,0.49415,0.00265
1861,-5476.21,672.58,-0.00213,0.97518,0.48547,0.00696
1862,-5497.12,594.77,-0.00694,0.98527,0.48569,0.00385
1863,-5446.26,618.26,0.00314,0.96533,0.4858,0.00569
1864,-5457.69,530.26,-0.00547,0.96554,0.47731,0.00433
1865,-5453.49,682.21,-0.00176,0.99164,0.49406,0.00169
1866,-5390.75,623.75,0.00285,0.97035,0.48802,0.00097
1867,-5405.3,566.37,-0.00048,0.97261,0.48582,0.00123
1868,-5392.95,571.19,0.00446,0.98903,0.49897,0.00432
1869,-5463.7,621.41,0.00537,0.97864,0.4947,0.00263
1870,-5503.3,521.31,-0.00194,0.96504,0.48058,0.00023
1871,-5522.43,589.62,0.00554,0.96351,0.4873,0.00171
1872,-5521.86,656.88,0.0071,0.98143,0.49781,0.01373
1873,-5365.87,592.89,-0.00014,0.97322,0.48647,0.00644
1874,-5455.68,583.57,0.00434,0.93304,0.47086,0.00198
1875,-5383.43,611.91,-0.00039,0.95299,0.47611,0.00155
1876,-5457.09,672.67,0.0057,0.98709,0.49924,0.01008
