,avg_rews,std_rews,avg_actor_loss,avg_critic_loss,avg_policy_loss,avg_kl_divergence
0,-5807.86,470.83,0.32031,1.71858,1.1796,1.0
1,-12714.12,2116.05,0.14553,1.78539,1.03823,0.27524
2,-12636.76,2408.42,0.10621,1.77469,0.99356,0.13179
3,-12881.76,2321.47,0.07658,1.64898,0.90108,0.08384
4,-12541.15,2384.64,0.0264,1.7143,0.88355,0.06085
5,-12485.82,2103.37,0.06109,1.57224,0.84721,0.05223
6,-12402.2,2285.25,0.03964,1.64207,0.86067,0.04155
7,-12390.99,2403.55,0.03266,1.5951,0.83021,0.03596
8,-12215.25,2361.5,0.01152,1.65196,0.8375,0.04116
9,-12409.73,2231.56,0.04858,1.52594,0.81155,0.0377
10,-12761.55,2250.84,0.0086,1.51444,0.76582,0.02082
11,-12690.73,2118.32,0.01184,1.49695,0.76031,0.01141
12,-12285.28,2300.74,0.00331,1.46977,0.73819,0.00597
13,-12686.02,2421.31,-0.00335,1.4533,0.7233,0.00786
14,-12455.65,2459.13,0.0078,1.31914,0.66737,0.008
15,-12757.56,2195.15,0.00039,1.38283,0.69181,0.00782
16,-12080.29,2596.28,-0.00172,1.32967,0.66312,0.00918
17,-12077.39,2265.01,-0.00847,1.29765,0.64036,0.00786
18,-12651.49,2455.9,0.00089,1.22528,0.61353,0.0016
19,-12531.78,2320.08,0.00093,1.27629,0.63907,0.00402
20,-12496.05,2365.04,-0.00119,1.31249,0.65506,0.00508
21,-12762.06,2386.69,0.00836,1.31647,0.66659,0.00881
22,-12536.6,2364.54,-0.00197,1.22757,0.61181,0.00312
23,-12421.68,2187.31,0.001,1.22965,0.61583,0.00595
24,-12832.28,2267.55,-0.00483,1.26554,0.62795,0.00611
25,-12679.11,2382.44,-0.0024,1.24927,0.62224,0.00623
26,-12815.15,2245.15,0.00449,1.24339,0.62619,0.00738
27,-12920.21,2333.08,0.00676,1.21677,0.61514,0.00594
28,-12888.02,2277.02,0.00124,1.24693,0.62471,0.00737
29,-12344.57,2253.94,-0.00204,1.20754,0.60173,0.00647
30,-12443.38,2335.76,-0.0065,1.15205,0.56953,0.00214
31,-12523.82,1801.18,-0.00699,1.20187,0.59394,0.0053
32,-12408.18,2392.59,0.01353,1.18886,0.60796,0.01313
33,-12965.34,2250.31,-0.00253,1.2087,0.60182,0.00338
34,-12520.47,2340.63,0.00267,1.1118,0.55857,0.00465
35,-12395.13,2403.98,-0.00563,1.15167,0.5702,0.00345
36,-12294.44,2555.39,-0.00565,1.09613,0.54242,0.0055
37,-12415.56,2284.6,-0.00051,1.12535,0.56217,0.0017
38,-12585.07,2402.75,0.00379,1.12725,0.56741,0.00811
39,-12527.24,2688.38,0.01125,1.13408,0.57829,0.02051
40,-12442.53,2310.7,-0.00049,1.14774,0.57337,0.00531
41,-12663.58,2440.32,0.00715,1.10255,0.55842,0.01466
42,-12505.14,2125.45,-0.00414,1.12548,0.5586,0.00426
43,-12459.14,2299.48,-0.00385,1.15208,0.5722,0.01353
44,-12703.49,2347.53,0.02754,1.12425,0.58966,0.0157
45,-12294.73,2085.79,0.00166,1.08597,0.54465,0.00444
46,-12705.62,2120.13,-0.0029,1.10582,0.55001,0.00124
47,-12861.94,2236.27,0.01249,1.08698,0.55598,0.0114
48,-12656.26,2343.57,0.00924,1.14095,0.57972,0.0084
49,-12866.17,2435.03,0.01588,1.07249,0.55213,0.01138
50,-12412.12,2172.64,-0.00919,1.08024,0.53093,0.01414
51,-12758.9,2101.12,0.00152,1.04699,0.52502,0.00521
52,-12202.69,2217.11,-0.00597,1.10002,0.54404,0.00654
53,-12844.91,2260.72,-9e-05,1.05374,0.52678,0.00859
54,-12534.84,2047.23,-0.00213,1.05681,0.52627,0.00653
55,-12415.54,2395.55,0.00453,1.08442,0.54674,0.00547
56,-12407.29,2520.74,-0.00248,1.11206,0.55355,0.00538
57,-12468.4,2500.94,0.0014,1.08891,0.54585,0.00857
58,-12847.19,2335.46,-0.0084,1.06805,0.52562,0.00746
59,-12475.71,2339.46,-0.00364,1.05658,0.52465,0.00361
60,-12438.95,2340.75,-0.00758,1.06613,0.52549,0.00389
61,-12542.59,2468.0,-0.00825,1.02711,0.5053,0.00347
62,-13016.95,2323.64,-0.00113,1.03871,0.51822,0.00201
63,-12475.18,2255.46,-0.00263,1.05818,0.52646,0.00175
64,-12733.7,2129.91,-0.00204,1.03718,0.51655,0.0016
65,-12803.65,2415.35,0.00265,1.04574,0.52552,0.00265
66,-12996.24,2234.17,-0.00309,1.04768,0.52075,0.00176
67,-12125.57,2391.12,0.0051,1.00518,0.5077,0.00743
68,-12846.54,2362.77,-0.00498,1.04667,0.51835,0.00605
69,-12585.22,2232.75,0.01064,1.04444,0.53286,0.01402
70,-12409.1,2417.05,0.01434,1.00156,0.51512,0.01315
71,-12733.68,2373.4,-0.00048,0.99351,0.49628,0.0132
72,-12426.74,2063.0,0.00902,1.00863,0.51334,0.01043
73,-12496.99,2133.56,-0.00281,1.04091,0.51764,0.00797
74,-12621.25,2057.96,0.00233,1.01681,0.51074,0.0123
75,-12377.79,2180.56,-0.00148,0.98201,0.48952,0.01841
76,-12447.59,2261.35,0.00244,1.0304,0.51764,0.01096
77,-12882.03,2237.38,0.00435,0.99108,0.49989,0.01334
78,-13086.42,2099.12,0.00796,1.01907,0.5175,0.00989
79,-12253.66,2148.59,0.00544,1.02218,0.51653,0.00789
80,-12735.01,2385.74,-0.00147,1.00171,0.49939,0.01081
81,-13118.76,2540.03,-0.00454,1.00822,0.49958,0.00963
82,-12415.19,2172.44,0.00354,0.9657,0.48639,0.00834
83,-12137.23,2468.79,0.00176,1.02528,0.5144,0.00314
84,-12200.95,2549.7,0.00284,0.95493,0.4803,0.00487
85,-12307.62,2310.12,0.00732,1.0237,0.51917,0.00661
86,-12308.37,2476.77,3e-05,0.96446,0.48226,0.00899
87,-12830.48,2095.68,0.0397,1.05057,0.56498,0.0308
88,-12663.37,2675.85,0.00085,0.99353,0.49761,0.00346
89,-12112.19,2388.53,0.00475,1.01749,0.5135,0.01074
90,-12703.17,2315.38,0.01584,0.95819,0.49493,0.02647
91,-12641.24,2168.09,-0.00033,1.001,0.50017,0.01515
92,-12177.07,2138.1,-0.00246,1.00811,0.5016,0.00363
93,-12539.93,2434.07,-0.00439,0.98721,0.48922,0.00233
94,-12503.41,2229.2,0.00382,1.02886,0.51825,0.01332
95,-12420.66,2316.37,0.00556,0.97462,0.49287,0.0163
96,-12266.47,2281.67,0.00236,0.98635,0.49553,0.01906
97,-12254.45,2234.71,0.00193,0.97755,0.4907,0.016
98,-12139.8,2184.9,0.01055,1.00177,0.51144,0.01782
99,-12245.66,2407.63,0.00837,1.00864,0.51269,0.01057
100,-12383.12,2373.37,-0.00038,1.01203,0.50563,0.01034
101,-12384.81,2218.39,0.00203,0.97868,0.49137,0.00855
102,-12986.16,2422.57,-0.0036,0.97576,0.48428,0.00705
103,-12485.87,2114.9,-0.00202,0.97834,0.48716,0.00325
104,-12659.45,2367.25,-0.00287,0.98176,0.48801,0.00225
105,-12727.61,2406.77,-0.00536,0.97534,0.4823,0.0026
106,-12602.28,2548.95,-0.0039,1.00435,0.49827,0.00257
107,-12324.4,2316.5,-0.00058,1.00957,0.50421,0.00499
108,-12572.02,2530.76,0.00194,0.95227,0.47808,0.00298
109,-12295.41,2118.75,0.00029,0.97648,0.48853,0.00436
110,-12123.8,2346.1,-0.00033,0.98771,0.49353,0.00146
111,-12578.99,2286.42,-0.00697,1.01372,0.49989,0.005
112,-12595.87,2430.14,-0.00285,0.98134,0.48782,0.00375
113,-12749.87,1965.42,-0.00063,0.99399,0.49637,0.00264
114,-12656.26,2172.86,-0.00113,0.96653,0.48214,0.00652
115,-12454.04,2311.7,0.00707,0.99705,0.5056,0.00921
116,-12935.86,2160.07,-0.001,0.99086,0.49443,0.01677
117,-12627.63,2142.89,0.00503,0.98215,0.4961,0.01073
118,-12273.46,2497.7,0.00347,0.97708,0.49201,0.00408
119,-12597.15,2309.96,-0.0083,0.9439,0.46366,0.00205
120,-12921.17,2338.03,-0.00231,0.95372,0.47455,0.00233
121,-12788.77,2273.87,-0.00596,0.95548,0.47178,0.00207
122,-12681.71,2195.44,-0.00186,0.98777,0.49202,0.00514
123,-12241.96,2228.1,0.00233,0.98737,0.49602,0.00528
124,-12298.19,2243.09,-0.00509,0.95987,0.47484,0.00247
125,-12134.66,2323.78,0.01032,0.98205,0.50134,0.00744
126,-12193.54,2319.04,0.00404,0.97778,0.49293,0.00714
127,-12086.78,2164.05,0.00596,0.99357,0.50275,0.00528
128,-12486.14,2366.74,0.00159,0.9711,0.48714,0.01265
129,-12569.83,2032.44,-0.00481,0.98763,0.48901,0.0019
130,-12346.34,2501.83,-0.00266,0.99766,0.49617,0.00326
131,-12341.59,2282.75,-0.00533,0.98009,0.48472,0.00563
132,-12479.81,2425.91,-0.00372,0.95662,0.47459,0.01423
133,-12151.55,2320.49,0.00204,0.99047,0.49727,0.00601
134,-12211.82,2213.31,0.00408,0.98172,0.49494,0.00499
135,-12400.1,2433.19,0.00057,0.96025,0.48069,0.0093
136,-12306.92,2664.91,0.01432,0.95522,0.49193,0.03256
137,-12686.69,2423.81,0.03709,0.95149,0.51283,0.04062
138,-12216.88,2367.1,-0.00303,0.95616,0.47505,0.00606
139,-12630.78,2449.21,-0.00037,0.97008,0.48467,0.0014
140,-12198.93,2156.27,-0.00396,0.98014,0.48611,0.00082
141,-12623.6,2402.13,-0.00413,0.98108,0.48641,0.00065
142,-12658.11,2279.66,-0.00542,0.97774,0.48345,0.00175
143,-12530.49,2362.2,-0.00469,0.95407,0.47234,0.00238
144,-12345.25,2435.94,-0.00724,0.97293,0.47922,0.00753
145,-12533.68,2206.73,-0.0084,0.97175,0.47748,0.00573
146,-12417.89,2133.43,0.0011,0.95324,0.47772,0.00311
147,-12211.51,2381.82,0.0051,0.97815,0.49417,0.00617
148,-12525.25,2469.62,-0.00144,0.93595,0.46653,0.01024
149,-12284.47,2639.82,-0.00758,0.95375,0.46929,0.00194
150,-12849.98,2312.06,-0.00145,0.98033,0.48871,0.00254
151,-12427.89,2389.86,0.00191,0.93453,0.46918,0.00601
152,-12313.78,2160.45,-0.00079,0.97755,0.48798,0.00804
153,-12322.49,1999.59,0.00814,0.9402,0.47824,0.0171
154,-12224.59,2347.01,0.01581,0.985,0.50832,0.02276
155,-12192.86,2368.98,0.00314,0.95677,0.48152,0.01393
156,-12497.77,2306.78,0.01464,0.93002,0.47965,0.01286
157,-12199.43,2273.16,0.00924,0.97222,0.49535,0.0193
158,-12617.13,2134.82,0.03854,0.94064,0.50886,0.03135
159,-12300.14,1972.43,0.0401,0.96474,0.52247,0.02946
160,-12466.18,2252.78,0.00153,0.95361,0.47833,0.00932
161,-12275.97,2415.2,0.00718,0.96604,0.4902,0.00469
162,-12635.11,2298.17,-0.00326,0.96636,0.47992,0.00404
163,-12493.06,2163.9,0.00352,0.97172,0.48938,0.00715
164,-12534.85,2070.41,-0.00966,0.95456,0.46762,0.00748
165,-12780.18,2388.64,0.00066,0.96598,0.48365,0.00229
166,-12400.67,2327.65,-0.00367,1.00867,0.50067,0.0011
167,-12140.03,2346.11,-0.00248,0.9686,0.48182,0.00084
168,-12516.65,2134.33,0.00535,0.98374,0.49722,0.00646
169,-12481.24,2372.55,0.01236,0.93389,0.47931,0.01745
170,-12612.49,2114.74,0.00964,0.94847,0.48388,0.02291
171,-12325.22,2308.0,0.01192,0.93897,0.48141,0.01391
172,-12579.64,2109.22,0.04629,0.97403,0.53331,0.05846
173,-12455.52,1988.36,0.01213,0.97024,0.49725,0.02967
174,-12382.35,2109.79,0.00961,0.93356,0.4764,0.01549
175,-12205.15,2166.26,0.00089,0.99388,0.49783,0.01379
176,-13060.25,2223.14,0.00882,0.9957,0.50667,0.01369
177,-12046.41,2269.18,0.0218,0.98423,0.51391,0.03234
178,-12588.38,2592.35,0.02259,0.93696,0.49107,0.02976
179,-12406.38,2317.02,0.00711,0.97392,0.49407,0.01311
180,-12715.92,2227.73,0.01958,0.92046,0.47981,0.02495
181,-12005.08,2285.57,0.01164,0.96072,0.492,0.01705
182,-12146.56,2104.02,0.01542,0.99107,0.51095,0.01908
183,-12656.6,2135.29,-0.0028,0.96059,0.47749,0.01058
184,-12460.07,2128.45,0.01706,0.98112,0.50762,0.02885
185,-12036.92,2420.16,0.04071,0.94858,0.515,0.05369
186,-12091.15,2148.42,0.03636,1.0081,0.54041,0.05262
187,-12576.1,2289.7,0.028,0.93734,0.49667,0.04501
188,-12163.65,2136.72,0.02325,0.94342,0.49496,0.05517
189,-12237.91,2257.11,0.02085,0.96207,0.50188,0.03286
190,-12575.74,2150.38,0.01577,0.97397,0.50275,0.0207
191,-12206.39,2206.63,0.00926,0.96432,0.49142,0.00685
192,-12090.73,2162.27,-0.00297,0.94945,0.47176,0.00656
193,-12529.66,2304.07,0.00042,0.97734,0.4891,0.01427
194,-12058.06,2317.29,0.01946,0.96295,0.50094,0.03116
195,-12442.87,2073.05,0.02173,0.98605,0.51476,0.02871
196,-12759.53,2154.53,0.02303,0.92815,0.48711,0.02599
197,-12217.64,1977.33,0.0105,0.97807,0.49954,0.01092
198,-12271.01,2130.98,-0.00091,0.95326,0.47572,0.0025
199,-12734.95,2273.02,-0.0015,0.92748,0.46224,0.00196
200,-12056.26,2286.85,-0.00546,0.97273,0.48091,0.0039
201,-12285.96,2571.79,0.01217,0.95796,0.49115,0.03789
202,-12613.67,2331.15,0.00117,0.93211,0.46723,0.01394
203,-12472.7,2487.58,-0.00578,0.94227,0.46535,0.00411
204,-12708.01,2456.99,-0.00119,0.9249,0.46126,0.00116
205,-12432.96,2216.63,-0.00112,0.94443,0.4711,0.00209
206,-12571.32,2141.32,-0.00395,0.96634,0.47922,0.00579
207,-12641.61,2190.37,0.00367,0.97322,0.49028,0.00715
208,-12249.82,2460.95,0.0009,0.95163,0.47671,0.00592
209,-12381.25,2538.79,0.01129,0.95391,0.48824,0.01293
210,-12396.92,2391.69,0.00488,0.94123,0.4755,0.00992
211,-12372.09,2521.63,0.01204,0.94634,0.48521,0.01594
212,-12246.28,2148.84,0.02474,0.96955,0.50952,0.02074
213,-12262.03,2234.06,0.02117,0.94391,0.49312,0.01393
214,-12147.82,2446.75,-0.00384,0.9361,0.4642,0.00293
215,-12349.53,2375.2,0.02737,0.9744,0.51456,0.0269
216,-12450.69,2366.26,-0.00145,0.93035,0.46373,0.01102
217,-12390.84,2170.24,-0.00607,0.93974,0.46379,0.00247
218,-12312.89,2180.17,0.03171,0.99081,0.52712,0.02013
219,-12282.14,2026.0,0.00386,0.9792,0.49346,0.00509
220,-12455.85,2330.2,-0.00874,0.95142,0.46697,0.00604
221,-12507.12,2378.11,-0.00581,0.95144,0.46991,0.00332
222,-12198.43,2168.79,-0.00762,0.95999,0.47238,0.01133
223,-12306.58,2338.97,0.00979,0.96668,0.49314,0.01612
224,-12722.97,2442.56,0.00131,0.92177,0.4622,0.01228
225,-12383.09,2303.67,-0.00064,0.92192,0.46032,0.0067
226,-12115.35,2189.46,-0.00145,0.97595,0.48652,0.00557
227,-12040.46,2130.15,0.00138,0.97513,0.48895,0.01621
228,-12435.93,2557.29,-0.001,0.90235,0.45017,0.0213
229,-12192.44,2577.11,0.00178,0.95682,0.48019,0.00544
230,-12501.83,2271.15,0.00028,0.97076,0.48566,0.00184
231,-12370.2,2357.02,0.00305,0.9234,0.46475,0.00468
232,-12384.28,2035.38,0.02012,0.97898,0.5096,0.02058
233,-12077.32,2283.66,0.04277,0.94274,0.51414,0.03536
234,-12298.13,2287.16,0.02013,0.91731,0.47879,0.03686
235,-12227.65,2301.84,0.01902,0.92678,0.48241,0.02326
236,-12252.84,2315.79,0.00594,0.94066,0.47627,0.00758
237,-12169.82,2308.37,-0.00479,0.92632,0.45837,0.00519
238,-11828.3,2366.68,-0.00658,0.94928,0.46806,0.00477
239,-12473.63,2117.28,-0.00197,0.93773,0.46689,0.0041
240,-12688.24,2098.25,-0.00428,0.95929,0.47537,0.00349
241,-12005.02,2396.57,0.00073,0.92096,0.46122,0.00909
242,-12701.01,2179.77,-5e-05,0.93601,0.46796,0.02
243,-12460.46,2443.51,-0.00307,0.96593,0.4799,0.02405
244,-12568.97,2110.29,0.00703,0.97306,0.49355,0.02568
245,-12256.47,2047.07,0.01883,0.90087,0.46927,0.0205
246,-12436.31,1937.22,0.00363,0.96205,0.48466,0.01183
247,-12298.34,2265.86,-0.0075,0.94437,0.46468,0.00479
248,-12033.02,2053.22,0.01073,0.96083,0.49115,0.01356
249,-12331.21,2152.16,0.0153,0.98706,0.50883,0.01574
250,-11908.1,1979.38,0.00448,0.97171,0.49034,0.01261
251,-12254.08,2202.01,-0.00375,0.94831,0.47041,0.00708
252,-11917.4,2505.4,-0.00298,0.93362,0.46384,0.00515
253,-12515.75,2092.02,0.00113,0.96043,0.48134,0.01087
254,-12402.26,2114.98,-0.00324,0.97413,0.48382,0.00682
255,-12148.5,2237.75,0.00563,0.91317,0.46222,0.00998
256,-12220.67,2264.38,0.00026,0.93716,0.46884,0.00242
257,-12523.88,2518.71,-0.00164,0.90879,0.45276,0.00196
258,-12217.08,2157.75,-0.00193,0.95926,0.4777,0.00361
259,-12149.73,2254.88,-0.00161,0.96477,0.48078,0.00175
260,-12042.96,2094.72,0.00214,0.96404,0.48416,0.01472
261,-12077.46,2176.91,0.00425,0.94228,0.47538,0.01299
262,-12828.78,2480.7,0.02225,0.97493,0.50971,0.03091
263,-12405.48,2487.11,0.02671,0.94651,0.49997,0.01578
264,-11774.91,2407.75,0.00319,0.95048,0.47843,0.00844
265,-12333.55,2421.2,0.00083,0.9645,0.48308,0.00429
266,-12239.98,2179.16,0.00373,0.98415,0.4958,0.00345
267,-12305.93,2367.18,-0.0023,0.95552,0.47546,0.00274
268,-12026.87,2207.58,0.00525,0.98518,0.49783,0.0044
269,-12111.9,2200.65,-0.00245,0.91466,0.45488,0.0033
270,-12408.24,2257.43,-0.00589,0.94247,0.46535,0.00679
271,-12111.52,2473.09,0.01573,0.97123,0.50135,0.02224
272,-12398.88,2346.58,0.00433,0.9431,0.47588,0.01153
273,-12156.33,2397.94,0.0023,0.98028,0.49244,0.00937
274,-12236.96,2231.35,-0.00725,0.91861,0.45206,0.00673
275,-12306.85,2360.7,0.01086,0.95008,0.4859,0.0104
276,-12471.32,2316.29,-0.00277,0.9445,0.46948,0.00485
277,-12153.09,2501.58,-0.00084,0.9153,0.45681,0.00431
278,-12399.24,2540.53,-0.00105,0.92806,0.46298,0.00413
279,-12907.16,2457.02,-0.00271,0.89144,0.44301,0.00306
280,-12453.84,2107.56,-0.00301,0.94704,0.47051,0.00129
281,-12461.23,2491.34,-0.00461,0.94977,0.47028,0.00288
282,-12313.63,2264.29,0.00528,0.95069,0.48062,0.00453
283,-12608.88,2444.68,0.00221,0.92659,0.4655,0.00255
284,-12216.28,2431.36,-0.00542,0.97875,0.48396,0.00247
285,-12317.33,2320.18,-0.00438,0.9324,0.46182,0.00086
286,-12244.24,2310.51,-0.00394,0.96913,0.48063,0.0048
287,-12218.9,2393.29,0.00227,0.9342,0.46937,0.0082
288,-12532.75,2339.68,-0.00624,0.92187,0.4547,0.00166
289,-12492.23,2048.42,-0.00138,0.95956,0.4784,0.00193
290,-12397.21,2196.09,-0.00152,0.94863,0.4728,0.00308
291,-12250.81,2423.24,0.00879,0.94255,0.48007,0.01134
292,-12409.59,2586.68,0.00208,0.961,0.48258,0.01121
293,-12125.01,2288.19,-0.00366,0.92774,0.46021,0.01081
294,-12226.78,2328.27,-0.00286,0.94043,0.46736,0.01181
295,-12345.33,2371.78,-0.00528,0.90394,0.44669,0.00759
296,-12031.01,2212.01,0.02852,0.90715,0.4821,0.01415
297,-11877.59,2271.23,0.01755,0.95617,0.49563,0.02567
298,-12176.03,2345.9,0.0028,0.93384,0.46972,0.01512
299,-12385.7,2204.44,0.00081,0.98029,0.49096,0.00789
300,-11913.28,2456.56,-0.00147,0.95427,0.47566,0.00233
301,-12055.62,2635.13,0.00064,0.93653,0.4689,0.00231
302,-12516.05,2056.39,0.00399,0.9494,0.47869,0.00549
303,-12189.1,2014.21,-0.00457,0.98846,0.48966,0.0035
304,-12028.3,2229.03,-0.00698,0.91789,0.45197,0.00327
305,-11945.62,2244.57,-0.00289,0.9177,0.45596,0.00223
306,-12463.02,2316.17,-0.007,0.97014,0.47807,0.00167
307,-12093.13,2121.7,0.0103,0.95913,0.48987,0.02251
308,-12289.86,2516.13,-0.00759,0.95046,0.46764,0.0138
309,-12301.55,2363.64,0.01052,0.99116,0.50609,0.01406
310,-12329.2,2160.17,0.04395,0.92128,0.50459,0.03068
311,-12163.39,2359.57,0.01315,0.98722,0.50676,0.0272
312,-12165.64,2545.43,-0.00613,0.94221,0.46498,0.00465
313,-12454.82,2337.57,0.00672,0.94286,0.47815,0.00443
314,-12354.64,2007.59,0.00881,0.95954,0.48858,0.00738
315,-12073.22,2296.46,0.02195,0.90694,0.47543,0.0233
316,-12219.02,2178.6,0.01089,0.88896,0.45536,0.02096
317,-11971.7,2441.95,0.01319,0.93094,0.47866,0.01516
318,-12167.34,2499.93,-0.00192,0.92581,0.46099,0.00399
319,-11898.42,2205.94,-0.0011,0.93418,0.46599,0.00277
320,-12236.0,2133.63,-0.00413,0.98337,0.48756,0.00199
321,-12145.77,2198.75,-0.00164,0.96179,0.47925,0.00476
322,-12192.56,2233.13,0.00353,0.93833,0.47269,0.01399
323,-12239.48,2543.37,0.0126,0.89531,0.46025,0.01688
324,-12439.79,2121.45,0.00797,0.95695,0.48644,0.01168
325,-12414.06,2303.05,-0.00174,0.93103,0.46377,0.00291
326,-12095.41,1961.13,-0.00713,0.94302,0.46438,0.00232
327,-11974.53,2192.81,-0.00316,0.90792,0.4508,0.00199
328,-12625.29,2286.11,0.00017,0.93047,0.46541,0.00105
329,-12510.79,2411.6,0.00658,0.95121,0.48218,0.02956
330,-12361.1,2331.75,0.02335,0.91713,0.48191,0.03678
331,-12051.1,2204.54,-0.00307,0.93694,0.46541,0.00925
332,-12074.88,2368.2,-0.00717,0.94017,0.46291,0.00379
333,-12380.4,2243.78,-0.00503,0.88697,0.43845,0.00318
334,-11970.92,2223.84,-0.00423,0.98054,0.48604,0.00348
335,-12356.12,2166.97,0.00785,0.90721,0.46146,0.02021
336,-11971.84,2121.37,0.01792,0.95359,0.49472,0.01269
337,-11860.54,2171.06,-0.00898,0.90677,0.4444,0.00596
338,-12179.54,2223.17,0.00138,0.96567,0.48421,0.01029
339,-11969.1,2217.6,0.00373,0.92088,0.46417,0.0076
340,-12394.72,2257.46,0.00089,0.93858,0.47018,0.01107
341,-12474.09,2249.83,0.01317,0.9561,0.49122,0.0162
342,-12308.75,2038.41,-0.00536,0.98462,0.48695,0.00918
343,-11941.18,2185.8,-0.00882,0.95128,0.46682,0.00785
344,-12173.39,2152.4,0.00235,0.92162,0.46316,0.00607
345,-12267.79,2332.15,-0.00295,0.96632,0.48021,0.00194
346,-12294.55,2528.43,-0.00483,0.88059,0.43546,0.00111
347,-12205.09,2336.62,-0.00495,0.90352,0.44681,0.00663
348,-12255.8,2368.53,-0.01004,0.91723,0.44857,0.01177
349,-12452.3,2148.57,0.01846,0.91582,0.47638,0.02911
350,-11834.86,2356.74,-0.00231,0.94891,0.47214,0.00832
351,-12020.26,2385.92,-0.0056,0.89721,0.443,0.00332
352,-12166.34,2306.08,-0.00011,0.9572,0.47849,0.00556
353,-11799.9,2309.93,-0.00609,0.91772,0.45277,0.00245
354,-12224.56,2485.37,-0.00189,0.92925,0.46273,0.00537
355,-12238.77,2310.99,-0.00879,0.90542,0.44393,0.00336
356,-12363.27,2278.4,0.0014,0.95337,0.47808,0.00419
357,-12215.11,2173.13,-0.00461,0.94729,0.46903,0.00356
358,-11885.68,2292.52,-0.00211,0.9489,0.47234,0.00249
359,-12671.38,2581.33,0.00789,0.94684,0.48131,0.01721
360,-12348.25,2170.27,0.01795,0.92306,0.47948,0.02894
361,-12130.78,2283.15,0.00947,0.94727,0.4831,0.02412
362,-12196.29,1920.25,0.00374,0.95053,0.479,0.0115
363,-12401.38,2254.8,-0.00146,0.91112,0.4541,0.01293
364,-11771.27,2174.77,0.00225,0.99166,0.49808,0.0122
365,-11949.51,2278.69,-0.00372,0.91849,0.45552,0.0103
366,-12010.99,2269.46,0.01179,0.94737,0.48547,0.02205
367,-11924.22,2114.17,0.00726,0.91093,0.46272,0.01109
368,-12479.71,2209.45,0.00457,0.93976,0.47446,0.00629
369,-12018.77,2085.07,0.00308,0.93651,0.47133,0.00718
370,-11955.42,2361.09,0.01654,0.93053,0.4818,0.01692
371,-11881.41,2105.29,0.02261,0.9309,0.48805,0.04344
372,-12334.67,2150.91,-0.00499,0.95204,0.47103,0.0176
373,-12261.07,2216.29,0.01709,0.92571,0.47994,0.02318
374,-12113.43,2236.76,0.02268,0.94625,0.49581,0.02986
375,-11952.45,2418.01,0.00275,0.95892,0.48221,0.00637
376,-12384.77,2171.49,-0.00457,0.95465,0.47275,0.00608
377,-12128.47,2278.92,-0.00208,0.94951,0.47267,0.00202
378,-11952.08,2596.7,-0.0031,0.91535,0.45458,0.00206
379,-12358.88,2227.64,-0.00503,0.94026,0.4651,0.00215
380,-12381.51,2209.89,-0.00233,0.91533,0.45533,0.00365
381,-12338.53,2548.66,-0.00298,0.91218,0.45311,0.00256
382,-12042.01,2295.23,0.00419,0.93197,0.47017,0.00683
383,-12057.55,2021.02,0.0043,0.90176,0.45518,0.00849
384,-12122.52,2244.8,0.00043,0.93766,0.46926,0.00562
385,-11955.31,2414.83,0.00579,0.92787,0.46972,0.00697
386,-12240.26,2330.91,-0.00289,0.92592,0.46007,0.00646
387,-12184.04,2310.97,-0.0088,0.92469,0.45355,0.00332
388,-12429.86,2343.08,0.00783,0.91897,0.46731,0.00819
389,-11930.61,2456.38,-0.00205,0.9484,0.47215,0.01102
390,-11928.97,2150.5,-0.00502,0.95433,0.47214,0.00982
391,-12171.24,2295.8,-0.00647,0.93728,0.46217,0.00876
392,-11578.62,2186.29,0.0138,0.96426,0.49593,0.01499
393,-11713.05,2236.15,0.00576,0.89982,0.45567,0.01192
394,-11603.51,2217.39,-0.0072,0.89335,0.43947,0.0041
395,-12291.9,2290.03,-0.00356,0.93062,0.46175,0.00419
396,-12354.44,2343.22,-0.00222,0.91909,0.45732,0.00611
397,-12032.77,2219.26,-0.00601,0.97605,0.48201,0.00405
398,-12482.58,2354.12,-0.00223,0.94195,0.46874,0.00491
399,-12041.19,2032.48,-0.00559,0.92834,0.45858,0.00306
400,-11635.31,2309.42,-0.00169,0.92589,0.46125,0.00428
401,-12481.88,2287.77,-0.00304,0.97035,0.48214,0.00393
402,-12141.89,2317.28,0.00489,0.87298,0.44139,0.00544
403,-11996.57,2028.22,0.00127,0.91434,0.45844,0.00466
404,-12296.58,2290.8,-0.00442,0.94808,0.46962,0.00602
405,-12013.71,2400.93,0.00146,0.87288,0.4379,0.00792
406,-11916.16,2293.64,0.00387,0.92588,0.46682,0.00766
407,-12229.22,2298.8,-0.00561,0.95185,0.47032,0.00689
408,-11877.52,2260.03,-0.00399,0.94671,0.46937,0.00402
409,-11747.31,2306.1,-0.00358,0.9605,0.47666,0.00529
410,-12123.85,2374.3,-0.00719,0.91883,0.45223,0.00305
411,-12403.87,2161.81,0.0015,0.92429,0.46364,0.00334
412,-12093.04,2080.39,-0.00389,0.94548,0.46885,0.00436
413,-11883.34,2387.84,-0.00259,0.92562,0.46022,0.00137
414,-12315.99,2494.49,0.00109,0.86412,0.43315,0.01007
415,-11982.98,2281.27,-0.00887,0.90024,0.44125,0.00904
416,-11546.38,2187.57,0.00529,0.92193,0.46626,0.01381
417,-11958.12,2194.57,-0.00594,0.88398,0.43605,0.01306
418,-12225.84,2101.17,-0.00568,0.96196,0.4753,0.01161
419,-12448.29,2320.95,0.00012,0.90335,0.45179,0.00673
420,-11712.17,2373.92,-0.00263,0.97661,0.48568,0.00961
421,-11944.57,2349.48,0.01759,0.86859,0.45189,0.01774
422,-12360.98,2100.32,0.022,0.92895,0.48647,0.02252
423,-12552.05,2326.82,-0.00288,0.96382,0.47903,0.00173
424,-12359.51,2625.2,-0.00557,0.87989,0.43438,0.00112
425,-12490.65,2082.83,-0.00543,0.91937,0.45426,0.00889
426,-11882.82,2317.66,0.00066,0.91675,0.45904,0.00876
427,-11663.15,2223.91,-0.00213,0.88,0.43787,0.00972
428,-12109.68,2048.83,-0.00576,0.94688,0.46768,0.01178
429,-12093.93,2298.89,-0.00379,0.91867,0.45554,0.00638
430,-11915.01,2190.75,0.00155,0.98586,0.49448,0.00534
431,-12207.69,2334.59,-0.00863,0.93064,0.45669,0.00167
432,-11908.85,2303.02,-0.00461,0.94351,0.46714,0.00489
433,-11805.5,2144.12,-0.00396,0.92962,0.46085,0.00261
434,-12162.83,2283.34,-0.00203,0.93044,0.46319,0.00407
435,-11765.38,2269.43,-0.00322,0.91589,0.45473,0.00415
436,-12159.48,2185.06,-0.00709,0.90882,0.44733,0.00235
437,-11929.97,2026.5,-0.00021,0.9261,0.46284,0.00249
438,-11428.61,2308.44,-0.00595,0.95521,0.47165,0.0085
439,-11711.68,2360.59,0.00018,0.93658,0.46847,0.01561
440,-12071.88,2305.67,0.0257,0.9322,0.49179,0.03509
441,-11909.33,2140.45,0.00321,0.8868,0.44661,0.02353
442,-12099.75,2146.4,0.00528,0.94027,0.47541,0.00921
443,-12130.93,2222.69,-0.00305,0.94453,0.46921,0.00849
444,-11726.42,2225.41,-0.00175,0.92598,0.46124,0.00565
445,-11983.09,2389.46,-0.00065,0.92685,0.46277,0.00303
446,-11886.01,2111.84,-0.00809,0.96161,0.47272,0.00656
447,-11927.61,2202.77,0.00421,0.9005,0.45445,0.01237
448,-12148.52,2106.36,0.00113,0.93777,0.47001,0.00786
449,-11861.53,2440.79,-0.00553,0.86696,0.42795,0.00274
450,-11841.52,2217.89,-0.00688,0.89987,0.44306,0.003
451,-11953.13,2159.84,-0.00945,0.88991,0.4355,0.00537
452,-11913.73,2169.68,4e-05,0.94469,0.47239,0.00675
453,-11460.41,2467.62,0.00716,0.89647,0.45539,0.0086
454,-11915.69,2112.69,0.00265,0.96531,0.4853,0.01075
455,-11691.03,2249.23,-0.00068,0.9038,0.45122,0.01922
456,-12058.93,2232.42,0.01542,0.94775,0.4893,0.01092
457,-11808.61,2285.36,0.00898,0.91182,0.46489,0.01473
458,-12020.98,2277.67,-0.00691,0.90107,0.44362,0.00813
459,-11910.77,1955.54,-0.00018,1.00197,0.5008,0.00953
460,-12199.31,2558.01,0.00773,0.88261,0.44903,0.00582
461,-11989.85,2285.19,0.00266,0.95027,0.4778,0.00615
462,-11644.83,2185.99,-0.00111,0.95862,0.4782,0.0079
463,-11394.61,2197.85,0.00207,0.87596,0.44005,0.00648
464,-12386.58,2292.02,-0.00214,0.93721,0.46646,0.00396
465,-11868.13,2073.08,-0.00178,0.90941,0.45293,0.00345
466,-11696.73,2380.87,-0.00667,0.96223,0.47444,0.00568
467,-12366.03,2444.68,0.00964,0.88597,0.45263,0.0092
468,-11771.27,2256.84,0.00481,0.90414,0.45688,0.00779
469,-12221.5,2219.4,0.00097,0.92144,0.46169,0.00706
470,-12134.02,2417.9,0.00279,0.93185,0.46872,0.00821
471,-11616.92,2166.72,0.00098,0.92222,0.46209,0.00941
472,-11567.35,2145.89,0.0027,0.97024,0.48781,0.01093
473,-12219.9,2489.99,-0.00917,0.90909,0.44537,0.0051
474,-12037.0,2275.6,0.00539,0.92256,0.46667,0.00575
475,-11701.33,2146.82,0.00529,0.93134,0.47096,0.00829
476,-11189.86,2323.53,-0.0029,0.87641,0.43531,0.00974
477,-12076.41,2390.44,0.00438,0.94332,0.47604,0.01026
478,-12094.68,2367.69,0.00761,0.90133,0.45828,0.01007
479,-11802.35,2199.87,-0.00418,0.93829,0.46496,0.00677
480,-11625.36,2108.65,-0.00387,0.89378,0.44302,0.00233
481,-11766.25,2236.27,-0.00324,0.88851,0.44101,0.00293
482,-12328.05,2569.22,0.00033,0.91848,0.45957,0.00349
483,-12100.0,2233.41,0.01094,0.91302,0.46745,0.01204
484,-11629.26,2180.4,0.01924,0.92137,0.47992,0.01894
485,-11872.61,2343.21,0.00188,0.89488,0.44932,0.01958
486,-11591.25,1945.35,0.00948,0.94186,0.48041,0.02257
487,-11774.14,2000.81,-0.00012,0.9244,0.46208,0.01135
488,-11982.84,2281.46,-0.00067,0.92615,0.46241,0.00466
489,-11782.73,2263.44,0.0062,0.90229,0.45735,0.00844
490,-11954.12,2199.59,-0.00279,0.91164,0.45303,0.00517
491,-12046.74,2089.97,-2e-05,0.91237,0.45617,0.00487
492,-12101.18,2353.67,0.00544,0.92504,0.46796,0.00912
493,-11688.48,2351.86,-0.0048,0.9021,0.44624,0.00186
494,-11825.61,2444.5,0.00156,0.92594,0.46453,0.00282
495,-11501.16,2260.04,-0.00318,0.89882,0.44623,0.00178
496,-11660.3,2150.54,-0.00565,0.92981,0.45926,0.00476
497,-11683.65,2224.12,-0.00806,0.95279,0.46833,0.00343
498,-11921.47,2143.02,-0.00785,0.90837,0.44633,0.00374
499,-11652.25,1798.72,-0.00793,0.95325,0.46869,0.00534
